#include <stdint.h>

const float weights[10][784] = {
    {-0.025608, -0.065777, -2.083363, 0.619677, 0.153485, 0.640987, 0.370661, -2.578160, -2.066339, 0.281375, 1.251012, -0.195523, 0.552103, 1.715382, -0.456368, 1.123591, -0.380897, 0.468006, 0.095933, 0.298911, -0.407488, -0.064702, -0.044405, 0.602106, 1.538642, 0.226142, -1.028375, 0.884458, 0.463043, 0.298789, -0.716061, 1.802563, -0.441090, -0.930481, -0.950772, 1.680661, 1.037523, -0.006163, -0.614665, -1.347817, 0.689214, -0.325720, 0.855871, -1.063105, -2.297993, 0.570592, -0.511058, -0.430761, -1.729083, -1.277778, 2.543197, 0.480847, -1.257148, -0.336932, 0.169715, -1.529342, -0.050383, 1.237020, 0.227754, 0.215850, -1.266900, -1.838606, -0.756430, -0.302237, -2.005184, 1.222611, 1.053459, 0.299839, 1.131561, -0.764321, 0.473793, 0.894531, 0.422784, 0.606534, 0.321566, 0.138096, 1.490847, 0.262861, -0.704844, 0.976589, 0.273338, -0.421472, -1.120646, 0.375807, 0.897816, -0.566530, -0.792950, 0.700340, 1.241467, -0.000237, 0.179311, -0.780420, -0.916205, 0.845310, -0.249136, -0.330048, 2.138471, 0.860631, 0.400994, 1.324611, 0.556758, -1.399399, 0.770057, 0.816871, -0.014634, -1.820391, -0.621045, 0.422185, 1.078692, -0.969982, -0.460504, -0.515704, 1.459790, 0.246415, -0.332069, -1.213349, -1.574450, 0.318589, -0.052714, -0.569906, -0.997472, 0.205020, -1.034574, 0.172210, -0.531978, -1.487000, 0.314027, 0.429217, 1.709521, 1.465161, 0.770340, -1.922778, 0.871598, -0.334370, -0.778707, -1.473098, -1.977731, 0.895298, -0.552927, -0.985710, -0.076890, 0.755484, -0.026198, 1.493300, 0.111691, -0.180574, -0.096646, -0.849021, -0.249817, 0.514987, 0.240119, 0.834301, 0.790307, -1.947415, -0.496592, 0.981789, 0.568424, -0.050034, -0.825774, 0.397822, 0.853545, 1.062377, -0.096594, 0.217630, -2.019910, -0.068163, 0.088570, -0.656928, 0.179668, -0.251316, 1.408934, 3.374010, -1.965139, -0.124996, 0.543161, -1.956755, 0.586309, -0.955149, 1.153751, 0.249242, 0.859739, -1.026471, -1.073608, -0.827866, 0.374960, 1.151285, 1.133411, -0.262637, -0.218291, -0.329827, 0.130145, -1.903864, -0.636983, 0.187517, 0.662157, -0.202030, 0.538958, -1.132614, -0.510261, -0.480270, 0.432542, -0.372800, -0.600212, 1.241399, -1.283346, 0.624868, 0.106565, 1.597151, 0.986653, -1.229924, -0.055631, 1.079420, 0.809690, -1.641844, -1.039460, 0.047914, 1.298802, 1.290720, 0.065312, 2.431492, 1.842085, 1.137437, 1.617084, -0.330139, 0.133132, 1.278759, 0.326184, -0.654564, -1.658471, -0.276667, 0.523231, -0.760633, 0.115575, 1.087693, -0.201436, 1.234382, 1.595805, -0.257333, -0.254281, 0.773384, 0.368907, 0.506536, 0.116667, -0.212465, 0.022542, -0.804997, -1.620786, -0.769755, 0.341835, -1.412184, 0.348071, -1.622006, 0.229346, 1.060721, -0.256581, 0.205233, -0.788626, 0.209172, -0.595746, -0.530817, 0.649464, -0.349594, 0.388316, 0.887527, -0.341648, 1.899832, 0.734593, 0.092446, -0.315324, -0.382256, 0.220505, 1.435216, 0.275801, -0.199718, 0.260349, -1.128303, -0.668780, -1.026090, -1.060153, 0.641479, 0.015837, -0.471834, 0.364464, -0.617142, 0.867070, 1.755078, -0.274599, 0.302233, -1.231092, -0.625632, -0.410337, 0.868415, -0.389802, 0.715957, 1.616929, 0.078017, -0.745187, -0.814426, -0.628049, -2.400108, 0.487773, 0.965163, -1.433794, -0.235864, -0.561039, -1.262336, -1.951487, 1.169901, -0.349012, 1.565166, -0.563038, -0.786647, -1.271789, -1.205695, -0.061595, 0.796785, 1.454447, 0.887450, 1.468043, -0.665122, -1.700679, 0.838662, -0.065816, 0.445582, 0.292007, -0.427454, 0.548867, 1.059392, 0.642331, 0.697658, 0.101460, 0.334077, -0.980644, 1.016740, 1.037125, -0.257886, 1.238728, 0.607684, -1.195220, -0.385319, 0.286059, -0.812614, 0.623825, 0.653602, -0.106753, -0.965732, 0.799926, 0.041423, 0.810816, 0.458370, 0.899653, -0.928877, 0.795804, -0.787200, 0.211073, 0.637193, -0.562537, -1.701345, 1.628809, -0.524278, -0.273312, -0.113175, -1.303242, -0.832895, 0.986979, 1.235377, -0.662377, -1.136846, 1.313337, 0.825260, 0.386046, 0.049362, -0.915281, -0.827107, 0.321003, -0.031769, -0.777870, 0.475803, -0.647085, -0.139784, 0.709287, -0.190150, -0.116122, 0.380052, 0.254233, 1.611512, -1.280096, -0.934714, 2.370334, 2.512682, -0.647342, 0.804771, 1.143780, 0.387435, -0.887184, 1.234276, -0.687650, 0.393986, -0.100620, -0.149173, -0.913683, 0.106247, -0.379681, 0.108664, 0.521902, -0.203789, 1.120369, -0.357424, 0.616973, -0.389981, 0.149829, 0.342163, -0.956105, 0.395065, 2.870537, 0.160611, 0.892740, -1.358648, -0.010650, 1.465388, -0.906208, 0.128776, 1.496362, -0.384210, 0.950656, -0.306654, -0.379651, -0.527017, 0.058688, -0.500717, -0.501536, -1.277093, 0.681604, 0.132187, -0.911864, -0.072677, 0.807704, 0.136543, 0.875275, 0.376811, -0.618902, -1.238291, 2.193920, 1.373172, -0.131877, 0.738000, 0.298472, -1.166945, -0.525292, 0.052605, 0.905808, -0.003770, -0.172721, -1.203651, -1.448980, -0.013114, -0.750057, -0.912499, -0.125498, -0.362997, 2.514575, -1.487837, 1.500822, 0.251222, -0.214079, 0.349394, 0.084173, -0.318271, -1.574559, 0.289421, 0.411097, -0.233352, -0.435630, 0.600428, 0.321177, -0.848705, 0.853336, 0.359560, -0.232112, 0.857637, -0.024851, -0.352342, -0.310470, 0.699849, 0.563863, -0.173340, 1.337057, -0.794408, -1.847071, -0.375172, 2.287712, -0.293581, 0.872527, -0.711340, 0.083939, -0.338940, 0.446290, -1.362820, -0.212915, 1.161937, 1.304800, 2.286952, -0.288430, 1.525843, -0.166502, -0.985647, -1.369362, -0.201210, -2.226914, -0.862418, 0.908387, 0.657546, -1.163332, -1.536882, -1.515262, -0.722152, 0.254539, -2.230973, 0.314394, 0.914854, 0.336840, 0.017167, 0.242748, 0.505787, -0.439180, -0.016801, 0.085129, 1.529509, 1.588105, 0.010819, 0.552283, -1.186235, -0.357923, -0.285530, -0.770848, -0.512990, -0.028574, 0.165399, -0.825767, 0.105680, -0.010376, -0.192414, 0.096266, -0.785492, -0.705673, -0.918025, -1.654167, -0.170868, -1.633749, -1.337013, 0.419737, 1.665408, 0.119681, -0.541085, -0.136910, 0.245362, -1.685729, 1.926884, 0.122802, 0.564216, 1.083452, -1.559316, 0.710557, 0.957689, -1.200183, -0.331620, 0.032007, 0.659075, -0.826911, 0.858579, -1.442222, 0.419387, 0.294540, -2.154545, 0.114830, 0.098926, 1.557952, 0.290534, 1.331148, 0.960584, -0.952647, -0.999643, -1.285533, 0.300433, -1.121039, 0.058338, -0.196453, 1.040010, 0.017098, 1.146032, 0.540784, -1.839538, -1.258448, 0.237303, -1.358085, -0.380376, -1.015523, 1.148413, -1.827803, -1.198340, 0.026353, -0.083191, -0.045591, -0.279914, -1.425562, 0.870482, 0.645092, -0.057405, 0.267423, 1.430752, 0.263796, -1.384199, -0.315954, -0.738461, -0.583825, 0.153820, 0.193278, -0.619777, 1.316895, -0.742645, -0.884552, -0.021422, -2.598395, 0.365356, -0.297227, -1.003079, -1.060061, -0.524956, 0.051542, -1.099319, -0.154698, -0.350394, -0.391264, 0.747648, 0.327881, 0.868554, 0.900729, -2.194718, 1.213373, -1.001402, -0.804163, 0.564077, -0.522517, 0.047510, -0.577685, 0.370655, -0.813916, 2.196411, -2.114790, 0.455319, 0.189225, 0.192813, -0.653860, 2.902962, 2.082783, -1.614301, -0.127684, -0.622321, -0.110421, 2.197861, -0.453558, 1.408198, -0.080368, -0.398038, 1.228500, 0.127126, -0.756318, -0.605878, 0.460083, -2.030575, -0.988764, 1.526014, -1.052285, 1.242670, 1.894210, -1.924472, -1.418858, 0.219263, -1.305032, -0.444650, 0.245315, 0.965530, 0.071322, 0.652607, 0.713847, -2.063186, 0.796849, -1.399949, -0.459863, 0.327293, 0.437023, -0.224340, 1.029936, -0.350951, 0.744097, 0.398550, -2.217176, 1.106007, -0.072339, 1.450068, -0.996490, -0.634385, 1.352092, 0.466710, 0.919462, 0.161010, -0.891346, 1.214026, -1.612413, 0.670848, -0.316707, 2.494548, -0.078259, 0.571990, -0.277019, -0.044773, -0.565683, -0.898526, -0.471046, 0.282673, 1.088208, -0.908004, 1.675221, -0.523234, -0.765756, 1.456226, 1.880961, 1.620076, -0.089226, 1.305991, 1.122233, 0.718812, -1.827455, -0.797249, -0.738797, -0.002385, -0.760688, 0.978172, -0.799935, 0.006646, 1.175219, -0.661502, -0.404246, -0.820579, 1.065313, 0.825684, 0.824889, -0.069570, -0.977879, -0.486664, -1.872595, -1.192339, -1.904359, -0.738168, -0.584332, 1.310153, 0.531313, 0.401653, 1.113118, 0.559530, -1.246421, 0.503227, 0.877991, -0.456199, -0.514263, -0.529113, -0.333080, 1.253843, 1.396213, 0.095613, -0.309647, 0.530098, 0.086442, 0.340225, 0.230795, -1.490549, -0.403772, -0.319888, 0.102922, -0.199874, 0.999821, -0.344316, 1.527526, 0.174240},
    {-0.472562, 0.222163, -2.699206, -0.256170, 2.143541, 0.022133, 0.501706, -1.365124, -1.232062, -0.036205, -1.018081, -1.053758, -0.718081, 2.343851, -1.815892, -1.025717, -0.382350, 0.698008, 0.968759, -0.809003, -0.032660, 0.330944, 1.703883, -0.253338, 1.052775, -2.710971, -0.171176, -0.283203, -1.265354, -0.443164, 1.023426, 0.778380, 1.693977, 0.891330, -2.273363, -1.235728, 3.117933, 0.611337, 0.965907, -0.735439, 0.926818, -0.415140, -1.188796, 0.612495, 0.764519, 2.142304, -0.991808, -0.402610, -1.679766, -0.292950, -0.283471, -1.116896, -0.366798, -0.081922, 0.863489, -0.220380, 0.824222, -1.274637, 0.809894, 0.237846, -1.318372, -0.330583, 2.131576, -0.261896, -0.901170, -1.685117, 0.833971, -1.698031, -1.211150, 1.063460, 0.707536, -0.831364, -0.315734, -1.289658, 0.200285, -1.356154, -0.576394, -0.900647, 0.345823, 0.712073, 1.351417, -2.132558, 0.221148, -0.583538, -1.106247, -0.904900, 0.152177, 0.341306, -0.928267, 0.529189, -0.316467, 0.557618, 0.519312, -0.368296, 0.299379, -1.771984, -0.736305, -0.580419, -1.272089, -0.733344, -0.937802, -0.182262, 0.409870, 0.500468, -0.370892, -0.050149, -0.330360, -1.835247, 0.044838, 1.973863, -0.120506, 0.644941, -0.871822, -1.203494, -0.292546, -0.203403, -1.027205, -0.283371, 1.215557, -0.254285, -2.116924, 1.874832, -1.457771, -0.238534, -0.701070, 0.265944, 0.331135, -0.429665, 0.478669, -0.737806, -0.449320, 0.829616, 1.049925, -0.098305, -0.522933, -0.739926, -0.353241, 1.731333, -0.077881, -0.867148, -0.596984, -1.233226, -0.684873, -0.923318, -0.291498, 0.176537, -0.786121, 0.837132, -0.320267, 0.651606, -1.539709, 2.032072, -0.878084, -0.288939, 0.281721, -2.374074, -0.583913, -2.276380, -1.307372, 0.117715, -1.378780, -0.628408, 1.256897, -1.692552, 1.764421, -0.772290, 1.431959, -0.246886, 0.183876, 0.061434, 0.144275, 1.908275, -0.001828, -0.474669, 0.341735, -0.425204, 0.536837, 0.721925, -1.305406, 1.246406, 0.247983, 0.807682, 2.037969, -1.498511, -0.022340, -0.137453, -1.503121, -1.714824, -3.165599, -1.164511, 0.955380, 0.143595, -1.161713, 1.115920, -1.409394, 1.237088, 3.233675, 0.490509, 2.998038, -1.050345, -1.176796, 1.702390, -0.882148, -0.944194, -1.208238, 1.836071, 0.374421, 0.865350, -0.224966, -0.231859, -0.626967, -0.268653, -0.113004, 1.854354, 2.414438, -0.454246, -0.892207, -0.660658, 1.183716, -2.306563, 2.021309, -1.244038, -0.767114, 0.595324, -1.237469, -1.547688, -1.091771, 0.944087, -0.226107, 1.378860, -0.197655, 0.243246, -0.439019, -0.290303, -0.464845, 0.998997, 1.966190, 0.717301, -1.014524, -0.909182, 0.195543, -0.596907, 1.812763, -0.147176, 0.179399, -1.615131, -1.223392, -0.899277, -0.494258, 0.550022, -0.268472, 1.278078, -0.269894, 0.105973, 1.807977, 1.914271, -1.398716, -0.932483, 0.066724, -1.212696, -0.791198, -2.104948, -1.773895, -1.280747, 0.557476, -0.270585, 0.560671, 0.155719, 1.363816, 0.206075, -0.431346, 1.411760, -1.267838, 0.770854, -0.946854, 0.332110, 1.606454, -0.000234, -0.952914, -1.962220, -1.722760, -0.664334, 0.158338, -0.292430, -0.232765, -0.314574, 0.834217, 0.528278, -0.796994, 0.022291, -0.130231, -1.140039, 0.713023, 0.250707, -1.296994, 0.734347, -0.365872, -0.569854, 0.299510, 0.730995, -0.714831, 0.565745, 1.010103, 1.540524, -0.369302, -0.235937, 1.098034, 0.609974, -0.361328, 0.220961, 0.326632, 0.198836, -0.985030, -0.863538, 1.385791, 0.144868, 0.552683, -0.613341, 3.145073, 0.315533, 0.854097, 1.329004, -1.433124, -0.359072, -0.150924, 0.817607, 0.275629, -0.867181, -1.031044, 1.256494, 0.634431, -0.429507, -1.301653, 0.120337, 0.680624, 0.515375, 2.408399, 1.928839, 0.853448, -1.849230, -0.010049, -1.790593, -0.296840, -1.448205, -0.640483, -0.138194, -0.002118, -1.203438, -0.778382, -1.406098, 1.148768, 1.165215, -1.405796, 0.031603, 0.036591, 1.426265, -0.323038, 1.771492, 0.686288, -0.384017, 0.187231, 0.006614, 1.734569, 0.685634, 0.840296, -0.100388, -0.504890, -0.825776, 1.500529, -1.440637, 0.600379, -0.865959, -1.872197, -0.626213, -2.203995, -0.046884, 1.171055, -0.767132, -1.776588, -1.701888, 1.938791, -1.215641, -0.104028, 0.351749, -1.358281, -0.869357, 0.015010, -1.900513, 1.465460, 0.251316, 0.472145, 1.768989, 0.337046, 0.503407, -1.516174, 0.461716, 0.426303, 1.805486, -0.334534, -0.598964, -1.796324, 0.643062, -1.449004, -0.591630, 0.108914, -2.042704, 0.820579, -0.548095, -0.335116, -0.058649, 1.397485, -0.618171, -1.472505, -0.203306, -0.807767, 0.716834, -0.372859, -1.848820, -0.320362, 1.237201, 0.034972, -1.002712, 0.034369, -1.164363, 0.473501, -0.257163, -1.028974, 0.983334, -0.475630, -1.397167, -1.774439, 2.104221, -0.793178, -1.065153, -2.400369, -1.315099, 0.426723, 0.273490, -1.610561, 2.046266, 0.619090, 1.814368, -0.017318, 1.247030, 0.124224, -0.704383, -0.115346, 0.905163, 1.022306, -0.395454, 0.107921, -0.534843, 0.260833, -1.448843, -0.184971, 0.403117, -0.387712, -0.094318, -1.282089, -0.015862, -0.198122, -0.368505, -0.114789, -0.452459, 0.340571, -0.058201, -0.521485, -0.093623, 0.592126, -0.544383, 0.801952, -0.206162, -1.072463, 0.228800, 1.376634, -0.226115, -0.616146, -1.037109, 3.008091, -0.361512, -0.078878, 0.061535, -0.956945, 0.342801, -0.526490, -1.238100, 0.440335, -1.504431, 0.424293, 1.577302, 0.372859, 1.688889, -0.146387, 0.327498, -0.671264, -1.154623, -0.327525, -1.566438, -1.478383, -0.941905, 1.004191, -0.092488, -1.511481, 2.252158, 0.138215, -0.254870, 0.032308, -0.712200, -0.654525, 0.607518, 0.631398, 0.965947, -0.159216, -0.127547, -0.201120, -0.275180, -0.123745, -0.551583, 0.269456, 0.185212, 1.502878, 1.703131, 0.557336, -1.051952, -0.107652, -0.706258, 0.070258, -0.483258, -0.321816, -1.091358, -0.498190, 0.183927, -0.640315, -0.532836, -1.103195, 0.840366, -0.038727, 0.858862, -0.017952, 0.415881, 0.895600, 2.216286, -0.408517, -0.058543, 0.240899, 0.270660, 1.757643, 0.662490, -0.403053, -0.821449, 1.077171, 1.223000, 0.964647, 1.547119, 0.990224, -0.744317, -1.852150, -0.968718, -0.088255, 1.825843, 0.312682, 1.694883, -2.153536, 0.944490, -0.588241, -1.559172, 0.105635, 0.093975, 0.560497, -0.761885, -1.820090, 0.532411, 0.581704, 1.228764, -0.041040, 0.136140, -0.151847, 0.643361, -0.056617, 0.969399, -1.283779, 0.056066, -1.033590, 0.090350, -2.521230, -1.257202, 1.002408, -0.898088, 0.030307, 1.309971, 0.457348, 0.572452, -0.935525, 0.579256, 0.566834, -0.850698, -2.824078, 0.209369, 0.303327, 1.294917, -0.844739, -0.678861, -0.385755, -1.610568, 1.224576, -0.116751, -0.858473, 0.965653, 0.671771, -0.809181, -0.389680, 0.400104, 0.038226, 0.196342, -0.868301, 0.168076, 0.717346, 1.267642, 0.916977, -0.439335, -0.662447, 0.705641, -0.597301, -1.745406, -0.467809, 0.650829, -1.992125, -0.336955, 1.247123, 1.140080, -0.139714, -1.803040, -2.539741, -0.181435, 1.206918, -1.455802, -0.588435, -1.211627, 0.026254, -1.828208, 0.707984, 0.341878, 0.718937, -0.637578, -0.969727, 0.027901, -0.814163, -0.545076, 0.326342, -1.671792, 0.795351, -0.468320, 1.352233, 0.281125, 2.200030, 0.812093, 1.115958, 1.411377, 1.568245, 0.704876, 0.216832, 0.634408, -2.608146, -1.317226, 0.436466, -0.255485, 0.437418, -0.488130, 0.260212, 0.209339, 0.334339, -0.789848, -0.342694, -0.114537, 1.812404, -1.757086, 1.924983, -0.986151, 0.133265, 2.651328, 1.208494, 1.185042, -0.084335, -0.325116, 0.388749, 1.503694, -0.266312, -0.222492, -0.411130, 1.988546, -0.502132, -1.046969, -2.079458, 1.131529, -0.525911, 2.013978, 0.681904, 0.720506, 0.841276, -1.592066, -0.386751, 0.505014, -1.076338, -0.903135, -0.102541, 1.786757, 1.177769, 0.505939, -0.270867, 1.247779, 1.397422, -0.304539, 0.057735, -0.409626, -0.826104, 2.519842, 0.439383, 0.783098, -0.013796, 0.382680, 0.378935, 2.014639, -0.262927, -0.360277, -1.222932, 0.853893, -1.537865, -1.918601, 0.602521, -1.402399, -0.132253, -1.096282, 0.716559, 0.593549, 1.140866, -0.005261, -0.497723, -0.301417, 2.553224, 0.625195, 1.103100, -1.357816, -0.076229, -1.252964, 1.420300, 1.812971, -0.102997, -1.006528, -1.070085, -1.579047, 0.648483, 0.774288, -0.004738, 0.604451, 0.085935, 1.599042, 1.099464, -0.407997, -0.677113, -0.361593, -2.785959, 0.286404, 0.946646, 0.619542, -1.155242, -0.507912, 1.076755, -0.581813, -0.411185, -1.015212, -0.746112, -1.773972, -1.023067, -2.264875, -0.756686, -1.885288, -0.724065, -0.589282, -1.547995, 2.177424, -1.038791, 0.072601, 0.381373, -1.748844},
    {-0.978923, 0.505905, -1.288582, -0.610734, 0.541449, -1.672596, -0.616753, -0.838107, -0.010953, 0.600703, 1.313238, -0.049150, -1.621246, -1.340197, 1.263932, 0.174653, -0.071667, -1.642192, 1.518878, 1.221863, 0.608895, -0.151044, -0.305414, 0.349465, 0.424258, 0.296887, -0.518862, -1.067095, -0.555894, -1.192963, 0.199826, -1.005293, -0.132014, -1.348503, 0.346945, -0.516688, 0.400637, -0.162926, 0.093199, 0.788608, -0.039060, -1.953410, -0.026881, 0.549869, -0.202764, -0.740907, -0.700056, -0.572712, 1.155674, 1.133801, 0.500144, -0.743562, 2.860777, -0.357095, 0.415652, 0.153162, -0.314772, 0.423784, 0.976634, 0.026061, -0.330321, 2.283677, -0.558029, -0.530377, 0.717450, -1.461210, 0.113459, 0.422735, 0.562803, 0.433133, -1.327559, 0.938366, 0.686194, -0.273720, 0.972678, -0.731243, 0.804236, -0.512206, 0.615025, -1.236829, 1.063235, 0.556182, 0.198770, 0.130554, 1.336695, -0.185026, -2.312179, 0.764308, -1.145040, -1.592685, -0.993582, 0.064959, -0.159394, -0.075099, 0.536611, 0.883833, 0.359633, 0.423948, 1.909168, -0.239960, -1.100984, 1.201703, -0.072330, 0.267984, -0.566770, 0.424612, 1.159515, -0.745237, -0.393839, 0.678830, -1.661874, 0.259342, 2.080156, 0.670106, -0.347067, 0.339218, -1.351604, -0.321779, 0.899095, 0.414114, 1.001456, -1.535851, -0.777320, -0.909417, 0.117750, -0.063680, 0.976003, -0.487510, -0.257017, 0.276697, -2.333692, 1.278327, 1.397961, 1.092360, 0.466449, 0.825402, -0.784995, 2.112012, 1.355416, -0.034391, -1.185399, -2.092296, -0.157332, 0.379465, 0.739949, -1.067445, 0.646313, -0.376592, -0.630648, 1.748590, 0.555629, 0.242264, -0.344017, 0.359946, -2.416842, 0.502400, -0.761805, 1.236487, -1.202736, -1.528247, -0.609563, -0.475877, -0.091352, -0.423777, -0.662925, -0.268470, 0.008173, 0.371222, 1.006850, -0.729072, -2.668146, -0.165252, -0.220940, -1.149299, 1.136476, 0.728772, 0.112435, -0.125366, -0.065540, 0.211596, -0.053153, -0.066420, -0.546077, 0.606000, 0.153594, 0.390149, -1.725623, 0.864801, 1.560028, 0.207929, 0.424747, -0.540592, -1.640212, -0.004599, -2.021029, 2.559082, -1.700397, -0.099499, -0.377308, -0.101752, 0.424804, -0.615746, 0.063867, 0.263697, -1.043947, 0.189731, -0.076392, 0.468093, 0.007591, -0.631083, 0.483890, -0.438312, -1.223853, 0.085288, 0.181740, 2.058024, 0.321925, -1.387984, 0.839375, 0.656270, 0.537249, 2.215606, -0.663434, 0.606611, 1.327733, 2.654453, -0.090325, -0.537039, 0.769884, 0.679395, 1.070953, 0.477844, -0.705133, -0.544548, -0.263156, 0.316078, 0.985719, 0.357210, 0.440457, 0.449400, -0.286038, -0.744781, -0.859135, -0.870587, -2.477730, 0.285456, 0.223553, -0.855995, 0.693288, 2.209788, 0.388924, 0.021417, 0.332283, 0.958267, -0.450426, -2.309704, -1.392978, 0.131505, -0.448178, 2.143788, 1.032830, 1.093871, 0.474771, 0.373749, -0.227039, -3.336638, 0.656045, -0.152277, -0.165673, 1.154646, -0.193366, -0.344581, 1.339633, -0.695451, 1.651182, 0.853123, 0.405564, -0.314019, 1.925350, -2.502710, -0.204478, -0.436758, 0.392016, -0.817627, 0.249033, -1.863337, 0.243795, 0.339007, -0.672915, -0.076716, -0.588853, -0.508958, 0.635544, 0.489805, 0.218383, -2.110353, 0.504440, 0.392343, 0.850532, -0.093387, -0.927379, -1.125852, 1.006160, 0.577516, 0.060584, -0.963877, 2.161185, -1.229331, 0.013437, -0.044232, 0.874016, 0.430148, -1.019394, -0.792271, 0.192091, -2.100459, -0.359918, 0.213838, 0.148915, -1.106869, 0.395140, 2.154886, -0.293272, 0.797314, -0.373339, 1.378807, -1.002467, 0.454555, 0.926708, -0.661760, 0.494755, -0.906588, 0.782717, -0.763521, -0.022845, 1.739609, -0.172852, 0.384157, 0.086328, -0.814899, 0.672467, -1.102866, 0.717871, -0.397633, -0.233098, 0.544369, -0.521573, 0.445897, -1.648617, 0.571003, 0.603805, -1.797618, 0.872519, -1.666407, -1.864386, -1.475370, 1.664725, -2.053891, -0.268092, -2.004926, 0.627230, -0.592359, 0.781207, -0.473083, 1.310595, -0.679179, -1.149898, -0.788111, 0.771179, 0.476914, 2.256505, 1.140742, 0.877868, 0.706318, 0.115720, -0.529141, 0.920085, -1.030554, 0.155462, -0.509976, -1.946516, 0.525078, 0.758329, 0.649455, -0.476637, -0.792178, 0.642803, -0.185528, 0.007156, 0.319708, 1.190836, 0.800508, -0.592080, 0.166417, -1.446259, -1.063020, -0.747575, 0.040440, 0.338357, 0.811103, -0.346738, -1.228936, 0.283199, 0.426947, -2.148434, 0.729399, -0.255627, -0.550356, -0.142321, 0.093659, 0.165066, 0.358932, 0.748072, -0.144920, -0.162349, 0.209389, -1.493652, -0.466878, 0.022230, 0.282540, -1.362593, 1.388127, -1.120161, 0.794386, 0.177485, -1.016122, 1.384128, -0.594264, -0.584127, 0.958008, -0.732628, -1.399471, 1.960227, -0.121287, -0.527866, 1.274891, 1.132821, 0.622775, 1.258899, -1.755213, -2.389912, 1.934530, -0.372380, -0.336565, -0.393307, 0.287978, -0.456323, 0.687880, -0.702413, -0.610751, 0.628958, 0.188863, 0.147244, -0.096412, -0.392867, 0.588712, 1.488721, -1.918746, -0.500705, 0.100280, -1.283958, -0.641594, -0.146733, -2.328951, -1.256369, 0.937989, 1.179848, -0.213937, -0.565612, 1.278538, 0.122109, 0.010464, 1.601357, -1.391251, 0.706154, 0.413383, 0.811940, -0.247437, 1.000558, -1.550412, 0.295389, 1.350472, 0.626320, 0.082464, -1.682792, 0.459322, 0.390768, -0.264718, 0.098569, 1.278871, 0.155453, 1.716124, 0.609133, 0.100399, 0.938301, -0.049594, 0.862611, -1.384099, 0.534846, -1.309727, -0.978331, -1.738009, 0.001883, -1.584500, 0.749918, -2.008027, 2.247708, 0.942195, -0.738807, 1.120950, -0.953209, 0.112135, -0.244773, -0.645699, -2.699923, 0.267823, -1.158235, -0.205417, -0.621609, -0.987072, -0.794548, -1.323612, 0.027497, 0.737327, 0.002675, 3.151249, -0.503128, 1.139719, 0.856207, -0.907161, -0.442201, 0.560305, 0.082791, 0.790351, -0.510511, 0.359146, 0.349483, -0.102768, 1.400216, 0.646605, -0.118787, -1.538358, 0.378418, 0.669795, -0.796727, 0.795504, 0.398886, 0.299845, 0.162076, 0.860972, -0.100490, 1.365889, 0.430064, -2.259263, 0.754911, 0.239741, 1.011061, -0.762326, 0.745867, 0.810229, -0.190900, 0.764679, 0.450529, 0.230145, -0.477806, -0.269354, -1.442592, 1.373486, -0.366495, 0.828670, 0.047110, 1.692104, -1.449761, 0.830043, 2.293341, -1.560577, 0.821297, 0.833190, 0.965830, -0.692948, 1.875014, 0.254429, 0.497144, 0.146477, -1.101772, 1.154519, 0.973812, -0.947542, 1.048885, -0.674414, 0.011338, 0.761923, -0.138219, 1.068401, -1.084766, -0.197803, 0.540714, 2.439495, -1.185293, -0.768730, -0.944626, -0.007902, 1.135066, 2.172610, 0.386011, 0.095592, -0.622687, 0.220273, 0.453829, 0.858938, -0.977232, 1.249511, -0.188268, -0.548672, -1.006725, -1.184959, -1.145825, -0.664316, -1.050319, -1.087950, -0.086623, 0.496471, -1.209566, 0.322734, 0.309339, 0.891626, -1.487779, -0.389543, -0.725345, -1.043674, 0.011521, 0.282782, -0.106081, -0.520186, 0.768942, -0.882378, -0.123298, 1.125430, -2.688665, 2.441841, -2.038667, -0.043404, 1.685555, -1.236684, -0.902615, -0.884148, -0.840013, 0.726784, 0.450561, 0.514551, 0.507823, -0.838224, 0.567619, 0.771975, -0.747076, 0.332296, 0.051394, -0.016574, 1.195119, -1.287654, 0.393369, -1.624998, -1.177420, 0.522157, 0.921159, -0.177706, 0.645753, -1.511036, 2.541749, 0.940845, -0.776510, 0.635122, 0.769541, -0.608925, -0.786782, 1.935043, -1.873909, -0.018813, 0.309676, -2.257627, -1.116300, -0.010985, 0.069812, -0.318888, -0.354763, -0.422818, -1.817849, 0.179734, -1.469666, -2.295117, -1.950227, -0.023622, 0.476574, 0.371400, -0.765151, -0.014267, -0.110734, -0.039550, -0.340659, 0.029042, -0.763441, 1.905436, 0.287468, 0.451476, 1.796666, -0.830500, 0.373500, 0.003701, -0.258517, -1.507380, 0.609130, 0.051715, -0.697639, -0.890035, -0.871771, 1.851678, 2.238283, 0.183313, 0.814305, 2.337381, -1.744029, -1.162947, 1.322325, 0.514519, 0.967448, 0.311307, -0.582450, -1.813135, -1.223251, 1.661573, -0.620421, -1.416288, -1.031394, 1.390187, -0.979026, 0.928254, 1.189220, -0.646858, -0.342435, -0.286532, -1.268347, -0.727085, -0.965468, 0.970314, -0.438896, -0.873886, 0.910995, 0.169184, -0.086710, -0.420560, 0.206488, -1.271653, -1.782598, -0.469848, 0.253955, -0.011215, 0.005526, 0.524548, -2.251161, 0.240447, 0.220170, 2.353519, 0.038586, 1.547246, 0.619321, 0.289216, -1.539234, 0.755836, -0.321263, 0.548018, 1.721141, -0.808207, -0.822528, -0.051140, 0.574517, -1.183031, 0.625577, -0.317254, -1.162717, -2.628865, 0.742311, -0.420885, 1.641477, 0.646232},
    {0.834731, 0.282729, -0.608092, -2.081557, 0.286629, 0.307069, -0.959064, -0.141451, -0.145704, 1.235423, -1.111586, -0.330171, -1.610061, -0.202626, 0.177719, 0.061314, -0.001458, 0.671740, 0.868971, -1.484306, -1.206227, 1.006295, 0.018219, -0.491557, 0.260360, -0.177081, -0.296431, 0.630284, 1.806699, -0.757323, -1.491126, -1.306839, -2.332687, -0.653696, 0.260853, -0.460341, 0.456141, -1.457457, 0.754619, -0.434822, -0.275893, -0.562920, 0.572995, 0.044814, 0.009415, 0.721074, -0.198518, 0.111152, -0.260307, 0.600034, -0.798641, 1.000996, -0.001533, -0.028781, -0.386603, -0.359822, -1.273801, 0.845131, -0.297909, -0.406696, -0.618885, -2.110465, 1.790212, -0.227665, -0.260995, -1.907954, 1.716144, 0.857179, -1.328764, 0.026553, -0.397211, -0.688141, -0.096983, -0.520994, 0.554047, 1.332787, 0.180954, 0.625342, 0.070606, -2.632352, -0.333791, 0.499810, 3.172611, -1.080893, 0.714498, -0.919163, 0.181795, -0.159981, 1.986496, 0.484221, -0.719268, -0.382719, -0.869668, -0.268440, -1.840581, 0.742681, 0.900082, 0.554102, -0.192738, 0.726613, -0.420938, 0.858160, 1.020158, -1.423141, -0.628743, -0.163192, 1.718906, 0.219901, 0.024314, 1.640097, 0.351967, -2.148313, -1.090971, 0.983896, 1.787864, 0.851678, -1.161926, -0.821795, 0.211160, -0.456339, -1.280053, -0.896661, -1.210003, -0.372900, -0.160283, -0.282459, -1.728109, 1.967804, 0.997716, -0.749965, -0.685203, -1.054784, 0.517850, -0.657735, -1.228680, 0.099016, -0.404545, 0.307147, 1.426765, 1.108150, -0.921476, -0.326683, 1.133267, -0.238813, -0.670120, 0.863460, 0.894759, 1.903391, 0.600985, 0.785363, 0.821011, 0.920929, -0.968156, -0.036579, -1.170342, -0.065805, 0.433565, -0.189742, 2.063686, -1.768077, 0.420634, -0.400439, -2.034182, 0.526276, 0.858713, 0.445754, -0.010228, -0.122657, 1.564388, 0.535467, -0.033284, 0.017108, -0.350729, -1.653327, -0.701471, 0.092845, -1.179207, -0.319118, -0.641753, -1.509027, 0.255441, -0.369475, -0.211165, -0.084808, 1.544867, -1.420418, -0.769026, -0.817529, 0.041940, 0.537300, 0.688908, 1.099164, 0.465406, -0.010668, 0.031729, 1.104076, -0.920310, 1.162690, -2.093822, -0.519304, 0.583819, -0.186234, 0.569956, -1.425506, 2.865669, 1.914510, -1.473495, -0.139420, -0.388095, 0.366859, -1.702045, 0.573706, 0.380117, 0.761603, 0.920183, 0.651964, -0.451848, 0.355871, -0.467542, 0.985497, -0.288359, 0.122708, 0.348122, -0.115689, 2.267402, -0.868601, 2.286576, 0.841382, -0.590899, -0.267764, 0.354000, 1.553801, -0.812678, 0.656131, 0.681815, 0.239909, 0.843196, 0.096839, 0.545174, -0.068344, 0.388709, 1.940841, 1.878109, -0.747686, -1.318919, -0.981157, 0.033157, 0.596313, 1.032814, 0.326495, 0.695978, -0.576244, -1.559269, 0.249058, 0.892262, 0.911508, 0.728893, -0.779006, -1.206622, 1.351063, -0.285371, 1.738428, -1.134706, -0.608642, 1.067161, -0.837877, -0.248985, 0.496937, 0.987459, -0.825192, 1.295725, -0.864480, 1.459286, 0.468679, 1.084936, 1.159589, 1.088025, 0.736938, -0.425829, 0.409445, 0.533241, -0.008498, -2.096298, -0.516237, 0.129120, 0.081041, 0.468309, -0.646578, 0.775376, -0.802470, 0.730147, -1.374352, 0.780101, 0.788146, 0.745624, -0.828399, -0.425010, -0.599047, 0.688184, 1.760041, -0.255240, -0.588035, 0.677249, 1.256133, 0.491404, -0.244395, -0.981384, 0.935503, 0.694570, 0.124326, 0.723780, 1.304297, -1.623750, -0.325738, 1.428309, -0.073559, 1.028850, -0.071603, -0.590385, 0.566344, 0.341007, 0.086549, -0.349964, -0.078857, -0.348091, -0.539771, 1.067742, -0.104374, -1.390820, -0.578262, -1.698096, -0.453481, -0.403612, -1.241744, -1.226867, 1.386334, 0.039791, 0.736656, -0.380436, 0.353693, -0.386014, -2.355645, 0.767754, -1.900713, -0.030435, 0.109430, 2.434337, -1.578209, 2.874855, 0.269273, 0.028293, -0.997779, -0.543913, -0.200561, -0.374484, -0.214134, 0.432042, 1.027090, -2.166735, -0.377377, 0.163349, -1.639404, 0.238079, -0.910106, -1.617511, 1.774931, -1.101112, 0.267616, -2.256156, 2.595014, -0.353848, 0.683362, 0.237653, -1.624365, 0.436114, -2.181679, 1.406360, -1.721431, -1.206662, 0.674299, -0.456907, -0.103759, 0.101068, -0.322027, 0.735726, -0.655310, 1.631295, -0.765009, 0.551459, -0.715059, 1.315734, -2.395874, 0.073398, 0.376304, -0.084990, 0.205698, 0.329387, 0.413270, -0.438710, 1.004312, -0.131309, -1.467216, 0.183381, -0.285741, -1.377168, 0.836355, 0.126640, 2.062022, -0.884033, 1.721429, -0.212796, -1.116755, 0.549289, -0.061671, 0.663676, 1.530659, 0.728350, -0.219531, 2.363972, 0.654912, -0.804023, -0.106812, 0.598385, -2.122909, -0.864048, -0.473393, -0.980091, 1.818370, -0.399962, -0.461485, 0.528630, 1.260505, 0.096456, -0.519981, -0.280700, -0.085311, 0.105536, 1.336326, 0.322213, -0.857331, -1.840807, 0.551668, 0.215859, -1.014161, -1.468819, -0.025383, -2.260355, -0.214015, -1.746472, 0.339842, 1.379453, 0.647706, 0.535371, 1.260533, 0.770299, 0.604224, 0.702007, -0.206463, 0.093032, -0.755141, -3.031148, -0.809689, -0.837431, -0.383605, 2.121813, 0.047839, -0.612534, 1.409077, -0.319409, -0.658620, 0.791501, -0.397346, 0.004761, 0.307151, -0.678407, 0.889687, -0.358000, -0.884927, -0.984120, -1.002193, -0.674483, 0.602337, -0.793615, 0.133911, -0.477794, -0.494547, -1.438239, 0.396183, 0.446497, 0.762345, -1.990026, 0.443664, 0.737449, -1.292466, 0.023894, 0.215381, 0.340346, -0.930513, -0.206914, 1.278052, -0.807315, -0.615151, -2.728914, -1.121437, 0.570435, -1.893292, 0.775194, 0.416210, -0.133038, 0.506302, 0.118269, -0.446076, -1.275486, -0.285092, 0.658603, -1.307358, 0.919905, -0.531267, 0.459905, -0.480554, -0.096467, 0.789918, -1.679884, 1.326385, 0.987399, 1.089045, 0.411170, -0.569704, -0.721559, -0.422969, 0.475535, -3.386910, -1.169207, -0.553257, 0.150865, -0.886485, 1.868185, -2.133465, -0.514858, 0.119159, -0.270929, -1.393976, -0.891886, 0.837575, -0.110629, 0.231217, 0.581661, 0.723857, 1.570089, 0.550579, 0.799727, -0.403596, 1.180253, -0.485943, 0.677229, -1.500228, -0.947968, 0.329497, 0.787152, -0.037356, 1.460380, 0.976221, -0.933889, 1.080031, 0.033348, 0.118353, -0.528234, 0.016828, 0.266264, -0.287629, -0.113194, 0.085326, 1.828822, 0.970596, -0.958059, 0.501788, -0.556453, -0.670077, 0.310881, 0.342642, 0.590406, 0.405343, 0.372060, -0.293905, 0.035317, -0.099139, -0.053440, 2.329690, -0.115327, -0.425290, -2.743487, 0.732856, 1.069643, -0.751032, -1.119366, -0.248874, -0.514283, 0.037195, 0.320399, -0.643779, 0.686564, -0.905172, -0.392765, 2.131776, 0.192468, 1.499196, -1.898703, -1.965412, -0.752437, -1.231530, -1.235505, -0.643955, 0.385409, -1.629646, 0.821888, 0.364955, 1.450812, 0.604907, -1.268856, 1.288336, -0.815080, 1.124336, 0.151610, 1.146680, 0.351598, 0.454082, 0.543068, -0.502969, 0.580448, -1.117415, 2.419667, -1.668942, -0.416944, 0.590962, -1.880124, 1.229045, 1.476104, 0.221613, 1.973742, 0.832678, 0.177144, 0.590155, -0.007728, 0.311037, -0.008153, -0.395287, 1.698180, 0.559830, -1.143095, -0.287188, -0.958134, -1.014897, -0.560805, -0.092883, 0.985505, 0.960399, -0.030781, 0.552901, 0.401976, 0.048758, 0.937395, 0.322379, -0.938064, 0.578248, 1.120311, 0.180711, 0.914623, 0.631690, 0.676429, 0.696499, 0.444381, -0.099154, 0.135122, 0.550500, -1.405605, 0.124393, 1.265340, -0.378252, 0.399895, 0.941704, -0.612518, 1.449309, -0.096387, 0.518293, -0.183351, -0.235454, 0.603361, -0.072631, -0.072769, 0.792141, -0.712363, -1.282602, -0.180041, -0.432318, 1.183938, -1.890694, -0.112273, 1.219707, -0.654430, -0.524455, -0.252735, 1.219679, 0.666674, 0.223669, 0.179253, 0.588103, -0.608669, -0.637537, -0.305207, -0.005135, 1.197862, -0.458794, 2.324872, -0.588968, -0.132819, -0.515013, 0.306117, -1.588102, 1.144943, 0.348268, -1.502621, 0.777285, -0.940168, 0.188026, -0.020083, 0.116271, 0.566638, -1.061503, -0.608435, -0.763593, 2.196429, -0.558925, 0.682406, 1.775499, -2.120801, 0.314526, 0.138726, -0.329469, 0.548046, -0.052269, 0.480759, -0.376340, 0.170624, -0.045969, 0.572514, 0.342422, 0.667386, 0.220855, 0.431517, 1.107741, 0.287814, -0.326349, 0.553221, -0.628773, -0.236993, 2.170488, -0.861460, -1.072085, 0.438846, 0.163205, 2.191393, 1.206058, 0.494499, 0.709230, 1.516076, -0.765188, -0.336108, 0.192045, -2.036352, 0.010412, 0.574298, 0.026385, -0.536943, 0.546968, 0.655673, 0.932965, -0.065569, 0.511103, -1.232018, -0.111701, -1.223229, 0.883337, 1.098379, -2.181955},
    {0.139974, -0.499278, -0.060754, 1.107847, 0.726895, -1.688679, 0.156905, 0.624896, -0.599921, 1.904174, -0.843819, -0.007985, -0.822547, -0.744706, -0.118925, -1.125195, -0.164791, -2.025108, 1.008296, -0.069117, -1.225754, -0.422447, 0.183899, -0.497953, 0.218688, -1.611920, 0.358358, -1.341083, 0.421388, 1.575066, -0.091358, -1.049249, -1.962547, -1.387991, -1.643855, 0.115685, -0.303429, -0.969279, 0.840269, 0.075337, -1.044046, -0.838209, 0.685730, 0.599641, -0.666858, -0.816941, -0.404131, 1.260034, -0.245505, 0.724802, 0.142061, -1.958659, -0.437947, -0.424108, -0.874356, -0.427940, -0.108193, -0.990584, 0.556326, -0.204344, 1.546563, -0.617308, -0.366686, 0.219058, 1.566664, 1.363126, 0.521346, -0.761238, -1.929790, -0.165581, 0.298864, -0.199063, -1.276623, 0.632474, 0.471818, 0.099449, -0.400229, 0.322864, 1.319056, 1.297191, 0.196963, 0.534663, -1.200587, 1.334137, 1.715728, 0.867085, -0.547624, 0.194339, -1.053475, -0.870891, 0.001503, -1.136942, -0.811429, -0.040756, -0.701897, -0.807536, -1.186135, -0.186280, -0.967117, -0.540715, 0.754568, -2.913460, -0.073388, 0.575109, -0.764560, -1.074029, -0.534342, 0.527497, -1.537281, 0.975799, 0.106125, -0.486842, -0.842416, 0.169621, 0.029678, -1.024584, 1.390432, -0.966994, -1.112924, -0.253682, 0.322082, -0.183193, 0.303219, 1.051703, 0.447378, -1.184682, 0.763095, -0.932864, 0.477356, 0.600066, 0.867373, -0.043151, -0.341442, -0.441147, 1.248435, -2.029420, 1.693388, 0.659003, -1.851254, 0.971620, -3.113675, 0.801587, 0.260768, 0.190862, -1.257921, -0.225852, 1.079120, 1.229760, 1.080497, 0.689389, 1.680398, -0.148540, -0.956312, 1.574848, -0.663869, -0.320958, -0.646946, 0.132057, -0.377227, -0.015414, -0.092879, 1.206916, 0.798079, -1.141258, -1.072745, 0.851228, -0.628069, 1.603089, 0.353870, -0.828165, 0.707233, 0.771766, -0.283081, 0.826586, -0.704548, 1.514852, -0.495606, -0.218638, -0.472804, -0.073403, 0.306194, -0.137231, 0.832052, 1.332830, -1.180419, 1.559079, 0.984606, -0.719971, -0.750429, 0.824194, 0.631005, -0.430862, -0.485689, -0.339003, 0.136076, 1.451751, -0.817540, -0.175674, 1.409903, 0.069647, 0.461523, -2.136805, -0.575500, 1.566165, -1.670108, -1.305551, 0.837062, 0.656563, 1.174111, -0.676123, 0.135664, 0.905330, -0.290370, 0.286604, -0.503592, 0.891105, -1.623017, 1.221300, -0.066427, -0.041719, 0.617425, -1.051338, -0.820131, 0.026439, 1.997927, -0.344950, 1.484795, -0.585944, -0.389645, 1.333165, 0.627927, 0.762953, 1.013479, -0.018625, -1.341137, 0.214370, -1.045489, -0.670839, 1.282351, 1.323980, -0.403714, 0.151330, -0.984103, 0.712958, -1.721350, 0.060153, 1.143829, 0.037428, 1.757196, -0.471257, -0.020506, -0.465014, 0.228580, -0.163990, 0.107712, -0.282499, -1.098125, 0.933684, -1.487939, 0.347217, -1.259282, -0.029930, 1.071325, -0.246370, -0.133373, -0.503661, -0.197214, 1.578278, 0.123469, 0.309209, 0.488249, 3.131063, -0.508954, 1.089364, -0.246457, 0.210063, 0.491162, -0.878731, 0.952130, -0.793522, 1.228520, -0.415572, -0.398595, 1.191472, -1.520059, 0.733553, 0.159733, 1.212141, -0.859964, -0.766528, 0.735898, -0.638756, -1.482862, 0.028261, -1.950348, -0.247564, -1.718801, -0.393071, 0.751126, -0.416103, 0.662891, -1.226374, 0.498399, 1.197530, -0.176842, -0.368249, -0.483152, -0.001554, 0.901381, 0.454757, 1.097271, 1.000032, 0.326075, -0.932890, 0.367395, 0.202365, 0.258544, 0.813289, 0.638629, -0.807623, -0.050264, 1.242295, -0.448872, 0.081236, 1.347691, -1.960765, 0.211986, 0.021449, 0.853408, -0.364570, -0.349598, 0.013180, 2.122651, 0.846922, 1.741105, -1.187815, -0.361727, -0.911220, 0.286449, 0.355898, 0.478568, 0.101120, 0.514666, -1.709901, 1.783523, -0.280363, -1.634410, 0.793611, 1.366122, -0.167985, 0.063664, -0.795957, 1.725598, 0.354254, 0.720571, 0.359707, 0.645402, 3.521936, -1.397352, -0.275112, -0.557314, 0.569324, -0.702653, -0.848758, 0.944847, -0.828626, -0.298135, 1.393315, 0.559669, -0.823612, -0.983496, 1.048074, -1.579059, 0.196672, 0.992882, -2.235737, -0.655740, -1.959419, -0.123500, -2.603580, -0.918148, 2.555442, -0.202313, -0.528591, 0.714717, -3.297713, -1.290469, 0.147578, 0.661564, -1.546412, 0.213206, -1.062640, 2.011466, -0.201026, 0.566563, 2.475204, 0.343268, 0.040141, 1.180750, 0.735506, -0.042071, 0.871593, 1.412363, -0.422376, -1.315649, 0.057013, 1.378584, -0.330654, 0.465930, 1.697385, -0.669980, -0.819211, 0.218747, 0.052784, -0.683099, 0.542117, -0.795393, -0.251556, 0.101337, 0.913679, -1.120191, 0.505549, 0.581398, -1.023366, -0.524961, 0.897028, -0.121420, -1.164950, -1.735346, 0.866448, -0.590342, -0.609273, -0.130358, 0.361313, -1.792386, -1.436408, -0.296145, -0.947791, 0.527182, 0.195343, -0.358609, -0.457944, 1.332103, 1.282075, 0.686445, 1.836090, -1.051863, -2.761901, -0.790571, -0.111987, -0.180781, 0.021718, 0.569312, -1.670950, -0.257647, 0.306017, -0.106311, -1.901442, 0.959647, 0.898132, 0.793864, 0.873498, 0.872711, -0.121182, 0.134666, -1.132541, -0.798391, 0.998058, 0.415000, 0.479093, -0.190594, 0.279159, -1.447733, -0.239649, -1.295607, -1.634914, -1.680007, -2.106691, -0.176711, -0.061650, -1.197607, -0.326094, 1.488660, 0.485026, -0.536561, 0.342289, 0.969481, -0.918790, -0.881765, -1.136281, -1.252337, -0.407044, 1.395434, 0.568571, 1.417831, -0.239465, 1.400894, -0.108716, -1.480385, -0.398346, -0.300861, -0.769003, -0.127513, -1.442495, 0.901228, 1.547778, -0.094492, -0.554361, 1.215551, -0.189104, 0.339636, -0.736451, 0.148730, -1.705453, 0.745727, 0.218094, 1.675184, -0.147185, 1.567905, 0.573270, -0.040573, 1.304493, -0.332289, 0.091416, -0.383278, -2.543479, -0.188834, 0.221301, -0.628964, 0.505070, -0.074794, 0.166993, -0.180481, 0.970378, 0.947355, 2.167842, -0.005303, 0.389857, -0.075514, 1.038468, 1.991049, 0.682800, -1.027599, 0.241133, 0.152956, -1.021086, 0.500394, -0.073177, -0.420633, 1.181331, -0.148083, 0.476440, 1.418197, -0.107757, 0.919060, -0.027397, 1.301449, -0.017655, 1.581758, -0.241609, 0.889157, 0.005521, -0.033683, -0.558933, -0.701578, 0.312749, -0.610651, 0.109036, -1.186359, -1.671376, 0.745335, 0.443796, 1.220003, 1.322445, 1.181345, 0.457126, 0.177253, -1.133175, -0.637083, 0.148203, 0.900453, 1.072252, 0.487667, 0.403967, 2.412990, -1.400717, -1.192882, -0.427716, -0.974486, -0.608173, -0.386929, 0.354613, -1.037757, -1.102670, 0.649970, -0.947353, 1.149360, 0.418118, -0.384280, 0.577127, -0.453095, -0.711610, -1.012532, -0.443413, -2.498957, 0.049191, -1.100932, -0.156265, 0.254806, 0.046431, -1.133170, -0.334052, -0.570162, -1.143470, -1.225941, -1.511070, 0.739610, -0.738533, 1.614512, 0.274779, -1.448629, -0.454821, -1.261033, 0.217424, -0.947961, 1.333597, -1.899234, -0.129850, -0.358712, 0.088859, -0.262645, 1.329025, 1.397461, 0.388473, -1.131457, 0.494222, 0.465983, 0.379059, 0.004957, -1.372693, -0.098246, 0.014806, -0.568719, 0.190371, -1.102448, 0.315617, 1.490904, -0.672094, 0.186243, 0.348179, -0.334565, -1.127144, 0.011909, -0.207902, 1.323719, 0.119650, -0.679801, -0.086538, -0.438751, 1.370713, -0.088926, -0.972636, 0.708677, 0.990019, -1.267898, 0.746424, 1.171273, 0.731473, 1.146224, 0.314310, 0.337311, -0.101747, -1.737321, 1.098218, 0.280739, -2.126244, -1.772633, -0.059457, 0.063620, 1.069260, 1.382908, -0.606782, -1.519799, -1.277585, -1.663868, 0.556540, -0.498752, -1.276834, -2.554668, -1.148808, 2.859669, 2.335376, 0.737438, 0.041805, 1.831810, 0.959450, 0.877483, 0.519463, 0.293549, -0.851742, -0.555759, -0.430586, 1.776930, -0.041502, -0.637440, 1.040484, -0.758785, -0.670336, 0.289688, 0.488999, 0.713049, -0.343332, 1.097013, 0.501892, -0.310265, 0.024234, 1.600375, 0.059033, 2.329264, -0.208698, 1.257823, 2.128536, 0.427680, 0.217734, -0.080167, 0.065441, -0.230053, 1.643371, 1.344485, -0.280788, -0.768902, 2.092203, 1.133377, -0.592777, -1.051435, -1.773413, -0.856111, -0.773919, 0.968805, 0.412308, 1.377166, -1.094304, -0.237878, -0.978981, -1.040913, 1.611326, 0.073960, 0.234710, 0.884671, -0.248864, 0.536313, 0.616716, -1.275275, -1.877392, -0.530505, -1.266081, 0.238773, -0.600316, -0.736972, -1.213218, -1.840280, 0.863278, -0.237699, 0.639446, 1.806816, -0.766863, -0.448721, -0.839123, -0.276602, 0.141187, 0.738530, -0.824963, 0.235599, 0.761489, -2.394513, -0.115478, -1.147491, -2.601958, 0.578776, -0.290232, 0.564490, 0.024978, -0.642400, -0.263559},
    {0.580058, 0.207331, -0.446115, -0.074113, 0.027203, 0.685343, 0.100774, 1.243127, -0.665389, -1.628494, -1.151063, -0.727097, 0.659611, 1.167202, -0.070470, 0.475420, -1.867964, -0.129042, -1.573417, 0.725857, -0.290789, 0.348097, -0.341088, -1.334649, 1.424840, -0.093106, 1.063755, 0.420752, -0.952621, -1.245428, -0.902114, -2.028030, -0.367198, 1.472419, -0.202961, 1.279964, 0.246970, 0.151200, 0.896580, -0.853806, 0.219464, -0.571690, -0.081576, 0.058637, -0.397030, 0.556610, 1.940170, 0.436092, -0.521830, 0.092232, -0.679409, 0.109759, 0.955117, 0.919166, -0.616285, -0.846556, 0.312726, -0.173271, -1.597207, 1.438938, 1.063789, -0.076919, 0.296634, 1.105926, 1.504441, 1.178891, -0.350628, -0.250530, 0.596237, 1.749563, -1.592408, 0.820885, 0.388024, 0.801178, -0.503882, -1.598202, -1.103805, 0.587126, -2.097573, 1.272564, -0.431218, -0.322249, 0.262902, -0.719152, 2.249029, 0.505727, -1.063201, 0.036619, -2.926536, -2.447421, -0.469745, -0.085075, -1.264337, -0.316297, 1.726353, 0.829245, -1.233407, -0.295946, 0.049415, 1.238433, 0.503488, 0.395295, 0.149691, 0.675559, -0.019454, -1.315592, 0.493854, -1.205399, 0.021492, 0.600625, 0.486859, 1.432389, 1.222119, 0.654163, 0.939416, 0.498912, 0.990100, 0.962926, 0.205216, -0.818689, -1.439245, 0.352929, 1.209397, -0.826922, 0.554657, -0.640297, 0.623954, 2.702431, -0.422967, 0.125672, 0.093100, -1.175883, 0.369903, -1.041849, -0.117712, -1.543028, -0.459161, -0.074923, -1.105680, -1.312594, -1.949145, 0.614005, 0.926769, -0.631383, 1.032730, -0.132120, -1.041414, 1.853157, 1.064358, 0.179300, -0.531844, 0.313328, -1.072593, -0.785272, 0.343086, -0.863121, 0.656583, -1.919443, -2.188713, 0.780659, 1.072517, -0.546823, -0.024249, -0.066254, 0.312692, -0.341235, 1.309024, -1.507700, -0.011340, 0.738801, 0.297639, -0.663999, 0.549997, 0.098303, 1.071911, -0.204336, 0.894478, -0.600352, 0.558738, -1.230324, 0.045793, -0.613789, 0.347593, -0.641455, 0.881553, -0.920028, 0.661104, -2.033486, -0.118465, 1.410984, -1.353378, -0.049673, 0.214691, -0.714571, 0.340147, -0.920099, -1.677937, 1.421195, -0.544306, -0.036491, -0.838643, -0.742032, 0.543880, -0.899509, 0.775924, 1.158987, -0.303136, -0.035554, -0.131622, -0.006779, -1.619739, 1.270081, 2.795078, 0.437470, -2.630367, -0.176378, 0.579608, -0.633886, -0.044487, 0.765413, -0.239470, 0.521896, 0.417566, 0.068925, -0.046850, 1.838424, 0.122608, -1.070983, -0.038541, 0.563829, -1.188707, -0.473457, 1.115773, 0.774131, -0.910623, -0.915939, 0.112127, 0.380722, -0.405462, 1.105972, 0.309402, -0.420362, -0.666670, -0.811758, 0.346769, 0.596236, -0.619184, -1.032961, 0.381473, -0.487960, 2.521271, 1.124051, -1.217875, 0.470588, -1.542447, 0.788331, -1.073420, -1.103242, 1.352162, 0.371565, 0.113989, -0.614032, 1.532301, -1.216779, 0.780812, 0.215277, 1.317158, 1.034987, 0.842917, 0.980144, -1.556683, 0.189340, -0.489056, 1.341266, -0.562765, 0.535872, -1.834816, -0.525878, 0.120394, 1.165730, 0.504624, -0.308592, 0.322629, -1.241661, 0.649032, 0.369883, 0.519367, 0.946829, 0.074530, -1.251678, 0.346254, -0.062880, -0.403786, 0.268005, -0.392365, 1.238053, 1.326443, 1.865906, 1.241072, -2.381886, -0.303021, -2.140863, -0.758581, 1.460535, 0.115251, 0.332152, 1.339949, 0.620335, -0.706887, -0.683032, 0.794093, -1.751379, 0.185756, 1.556236, -0.570424, -0.957562, 0.408186, 0.762520, -0.721574, -0.548541, -0.219680, -1.677309, 1.843543, -0.017340, 0.069387, -0.507252, -1.508676, 0.168024, 2.425899, 0.081498, -0.410872, -0.251532, 0.228220, -1.085259, -1.750131, -0.822541, -0.240285, -0.399449, 0.472228, 0.871506, -0.216638, 1.216835, -1.543122, 0.424831, -1.044425, 0.249916, 0.030145, 0.536837, 2.496494, -1.861770, -1.430913, -0.960934, -0.975026, 0.225178, -0.215381, 1.337471, 0.681268, -0.288431, 0.037814, -1.585480, 0.768468, -0.164966, -0.214112, 0.205668, -0.402479, -0.475200, 1.140494, -0.027224, 0.951737, 3.076800, -0.203141, -0.597405, 0.616326, 0.934102, 1.156690, -0.093114, -1.266156, 0.912380, 1.369086, -0.089301, 0.522557, 1.682280, -0.114937, 0.993370, -1.031289, 0.936808, -1.467717, 0.880857, -1.716553, -0.350713, 0.129968, -1.314004, 0.868018, 0.719233, 0.155557, -1.246960, -0.207324, -1.996125, -0.277716, 1.044715, -0.764262, 1.243740, 0.998034, -2.294411, 0.907990, -0.769478, 1.005153, 0.013974, 0.086603, 1.178999, 2.311264, -0.522104, -0.244258, 0.490894, -1.962375, 0.796863, -0.873217, -1.201957, 0.190394, -0.508908, -0.154207, -1.637388, 0.498834, 0.092198, 1.214960, 0.621764, 0.878662, -1.225571, -0.652797, -0.180116, -0.418439, 0.632691, 0.293465, -1.661218, -0.827351, 1.613300, -0.663748, 0.074693, -0.356194, -0.616815, 0.176783, -0.872465, 0.444802, 1.117278, -0.135897, -1.776474, -0.578086, 0.647105, -0.040577, 1.586750, 1.297037, -0.424258, 1.421561, 0.841717, -2.024107, 0.519948, 2.274408, -0.096458, -1.091566, -0.010035, -0.916669, 0.579970, -1.059964, -0.424328, 0.514747, -0.923546, -0.035686, -0.225166, 0.463198, -1.952889, -1.230831, 0.597311, 0.549288, 0.442033, 0.326425, 0.013114, -0.270098, -0.172695, 1.820659, 0.579865, 1.017717, -0.563201, 1.004461, -1.054300, 1.467235, 0.778113, -1.883260, -1.521174, 0.006626, 0.702798, 0.425112, -0.482925, 0.063848, -1.129220, -0.047425, 2.291597, -0.690596, -0.657510, 0.917546, 0.623153, 1.544416, 0.827042, -0.736422, 0.053746, 0.435739, 1.944105, -1.579047, -0.733044, -0.253019, 0.037567, -0.670809, -1.245434, 0.574081, -0.362816, -0.977781, -0.528915, 0.581820, -0.520172, 1.529739, -0.072511, -0.660821, -0.534809, 0.868317, 0.190791, 0.332451, 0.684111, 0.527244, -0.010667, 0.729951, 1.176652, 0.607706, 1.633080, -0.195183, 0.311725, -0.866412, 0.304618, -0.081789, 1.244723, 0.977959, -0.642710, 0.417663, -1.228508, -0.980319, -0.143709, -2.449187, 0.450667, -1.113368, 0.467886, 0.037641, -0.616040, 1.148118, 0.539211, -1.080719, -0.580348, 0.605622, 0.605568, 0.120339, 0.052021, 1.562917, 0.892323, -0.886267, 0.991072, 1.753315, 0.481866, 1.215243, 1.543482, 0.538561, 1.656982, -0.561814, -0.127743, 0.382676, -0.823213, 1.963778, 0.715467, -0.277836, -0.818476, 0.995477, 0.071137, -0.118457, -0.225579, -0.714443, 1.594349, 0.823857, -0.175050, 0.192142, -0.228861, -0.812219, 0.728313, 0.361391, 0.605431, 0.332320, 0.744785, -0.565171, 0.511698, 0.663345, -0.425799, -0.305926, 2.355050, 0.371528, -0.622824, -0.315100, -0.885953, 0.913797, -0.378757, 0.094872, 0.242712, 0.092359, 1.042004, 0.396524, 0.626085, -0.925159, 0.134065, 0.424656, 1.781091, -1.740652, -0.445116, 0.152867, -1.245199, 0.758648, -0.085668, 0.085583, -0.010497, -0.003400, -0.192443, -0.213674, -0.453748, 0.340479, 0.089398, -0.738769, 1.948952, 1.536472, 1.427021, -1.452874, -0.091304, -0.065320, 1.392378, 1.111926, 1.252062, 0.662374, 0.286036, -0.772216, -0.196326, 0.305753, 0.660235, 0.342107, 1.573110, -1.035898, 0.853500, 1.185172, 0.488734, -1.059859, -1.078467, 0.545433, -0.419874, -0.531345, -2.693254, -0.255334, 0.442294, -1.082671, 0.922793, 0.431242, -0.041027, -0.428995, -0.679254, 0.873567, 1.052053, 1.808785, -0.292412, -1.300771, 0.037660, -0.713763, 0.537790, -0.844917, 1.030283, -0.711151, -1.667107, 0.320408, 0.990903, -0.199425, -0.318794, -0.407762, -0.539567, 0.491418, 0.021109, -0.823926, 0.501566, 0.576867, -1.027330, 0.628053, -0.291848, 1.319441, -0.100175, 1.357730, 0.502388, -0.555113, 0.252194, 0.139730, 0.983391, 2.674965, -0.469047, -1.095054, -1.736834, 0.104519, 1.700632, 0.009125, 0.979728, 0.289265, -0.733476, -0.178932, 1.154041, -0.575880, -0.217732, -0.252539, 0.057948, -0.538626, -0.162766, -0.512782, -0.569242, 1.615429, 1.648882, -1.882347, 1.134909, 1.264228, -0.912195, -0.922026, -2.353985, 0.156444, -1.197655, -0.188275, 1.772471, -0.593240, -0.710078, -0.427062, 0.795641, -0.217858, -0.210098, -0.704062, -0.544775, 0.204204, 1.566197, 0.747419, 1.489243, 0.652800, -0.202017, -1.135861, 1.244364, -1.009144, 0.516187, -0.436205, 1.250857, 0.041532, -2.826105, -1.174445, 0.881629, -0.860227, 0.751485, 0.392750, -0.114544, 0.745515, 0.937902, -1.473166, 1.811913, -1.101018, -1.985234, 0.216460, -1.591052, 0.745357, 0.858877, -1.015506, 0.999887, -1.787726, 2.028038, -0.621367, 0.460564, -0.431014, -0.791849, -1.052671, -0.667740, 0.019974, 0.568529, 0.544525, 1.148843, 0.089004, -0.797409},
    {-0.437641, -1.879226, 0.647316, 0.857617, -0.844192, -0.526654, -0.218896, 0.896513, 2.241351, -1.154328, -0.780354, -1.355315, -0.787808, 0.014362, 2.384971, 0.049705, -0.747089, -0.877140, 0.342950, -0.060893, -0.564580, 0.964895, 0.819104, 0.994489, -0.585071, 0.579007, 0.597020, -1.650324, -0.347773, 1.244166, -1.064379, 0.850685, -0.916149, 1.313476, 1.136671, -2.498972, 0.549847, 0.118084, -1.307801, 0.167084, 0.175622, 0.565104, 0.503453, -0.200319, 0.125045, 0.519375, -0.635780, 0.174489, -0.203480, -0.364344, 0.070565, 0.805014, 0.814072, -0.913946, 0.681211, -1.441006, -0.648153, -0.705961, 0.490486, 0.229714, 0.477530, -0.626631, 0.154317, -1.409824, -1.662627, 0.495016, -0.745798, 0.430412, 0.656132, -0.264070, 0.516009, 1.888737, 0.661040, 1.573360, 0.207388, 0.708956, -0.027160, -0.589842, -1.159888, 2.322948, -1.250943, 1.127847, 0.195646, 0.044083, 0.077305, -0.819152, 0.212654, 0.265090, 1.280125, -1.169521, -0.082313, -0.856269, 1.329112, -0.976981, 0.393616, -0.016475, 0.149874, 1.734126, 0.183830, -0.153765, -0.918125, 1.458221, 0.254554, 0.640932, 0.953758, -0.741624, 0.532208, -0.008747, -0.797630, -1.795484, -0.691832, 0.326264, -1.166637, -0.108740, -0.181064, 0.542081, 0.610348, 0.174938, -1.092090, -0.654389, -0.385882, -0.246791, 2.592355, 0.556956, 2.058610, 0.039354, 1.960796, -0.046783, -2.108212, 0.710908, -1.358115, 0.641289, 1.014624, 0.469211, 0.092592, 0.104288, 0.283662, -0.057180, 0.488336, -1.259390, -1.390938, 1.803109, -0.108692, 0.457164, 0.683151, -1.002306, -0.630941, 0.304139, 0.404504, -0.296498, 1.782187, 0.028133, 1.025424, 1.186011, 0.129658, 0.571585, -1.285844, -0.453772, -0.284793, -0.788213, -1.688929, -1.291451, 0.457026, 0.529546, 0.903094, -0.505989, -0.031502, 0.168879, -0.880873, 0.733992, -1.399870, -1.203415, -0.102722, -0.930753, -0.812003, -0.916247, 0.819040, -0.314681, -2.699326, 0.561011, -1.081746, -2.177122, -1.238600, -1.542622, 0.438991, -0.536687, 1.592082, -0.991237, -1.948180, -0.578383, -0.700979, -0.060028, -0.379251, 1.731960, -1.212548, -0.037875, -0.200368, 0.191264, -0.753182, -1.498940, 0.306895, -1.489654, -0.111941, 0.223193, -2.836045, 0.099039, 1.368203, -0.165368, -1.003234, 0.961465, 1.282384, -0.662153, 0.025376, -0.121859, -1.085689, 0.677264, 0.526199, -0.478645, -1.113385, 0.989026, -1.741438, -0.395024, -1.429550, 0.168473, -0.853027, 0.564908, 1.810146, 0.486470, 1.318094, -0.835919, 1.445209, 0.035402, 0.415841, -0.376164, 0.206470, -0.403602, 0.530311, 0.278745, 0.594547, -0.575220, 0.544168, 0.023201, -0.110573, -0.864704, -0.591764, -0.263338, -1.257896, 0.663350, -0.368336, 1.491519, 0.566957, 0.642389, -1.535919, -1.769415, -1.113456, 0.051004, 2.370556, 0.025275, 1.439212, -1.592440, 0.087504, -0.254692, -0.116447, -1.952765, -0.914251, 0.638354, 1.066564, -0.140545, -1.286874, 0.133564, -0.754482, -0.252701, -0.995807, -0.400938, 0.854432, -1.364123, -1.794002, -1.031656, 1.377541, -2.329837, 1.771658, -1.027822, -0.533801, 2.319283, 0.819108, 0.419068, 0.439788, 0.624992, 1.054114, 0.634490, 0.034957, 1.089935, 1.470015, 0.059470, -0.337087, 0.745749, 0.059808, -1.588397, 0.128174, 1.971961, -0.766106, 1.204286, -1.442268, 0.487266, -0.231652, 0.050349, -1.103145, -0.009446, -0.816157, 0.266069, -0.984667, -0.272113, 0.786879, -0.232764, -1.918624, 0.464699, 0.308491, -0.849423, 0.460536, -0.379281, 1.350799, 1.062643, -2.779845, -0.873152, 1.515834, -0.627122, 2.743220, 0.625739, -0.482789, 0.174975, 0.742246, -0.021995, 0.335365, -0.422380, 0.754425, -0.723326, 0.668977, 0.427615, -0.304035, 0.820123, -1.625055, -0.922101, 0.707317, 0.717059, 0.293288, -1.329281, -1.013790, -0.952684, 0.464439, 1.240898, 2.723403, -0.465728, 0.767727, 0.598304, -0.048604, 0.847156, -0.198802, -1.206044, 1.025810, -1.339323, -1.019270, 0.063758, -1.181510, 1.133245, 0.549999, 0.148134, -0.929799, -1.037698, 0.304317, 0.235097, 0.568031, -1.481279, 0.832747, 1.347506, 1.556924, -0.880851, 0.054656, 1.581419, -0.013539, 1.024460, 1.371236, -0.239930, -1.655254, 0.975759, 0.596740, -0.339033, -1.398589, 0.275397, -1.325980, -1.552361, -0.689444, -1.135165, 0.958314, 0.769937, 0.225211, 1.677999, 1.358288, 0.871031, 1.275083, -0.767773, 0.376505, 0.908550, 0.353050, 0.104411, -0.911458, -0.270638, 0.951910, -1.350861, 1.760050, 0.358927, -0.127997, 0.221492, 0.618328, -0.540626, 0.058911, 1.317725, 0.307911, -0.166264, 1.182836, 0.311081, -0.788272, 0.197909, 1.774431, 1.451639, 0.589987, -1.671349, 0.179259, -0.233655, -0.358602, -1.709269, 1.022406, 1.019096, 0.098957, 1.323358, -1.749505, 0.152538, 0.792472, -0.703353, 0.468560, 0.678704, -1.493178, 0.402408, -0.306410, -1.096087, 1.994162, 0.339940, 1.147428, -1.018845, 0.358354, -0.668593, 0.256802, 2.836873, -0.175132, 1.458437, 0.308915, 0.116337, 0.238806, 0.233999, 0.566520, -0.288741, 1.264813, 0.122597, 0.676503, 1.272200, -0.784136, 1.555521, -0.061866, -2.082249, 2.508050, 0.608562, -0.864624, 2.226020, 0.052288, 0.458791, -0.865604, -1.434696, -0.964542, -0.856540, 0.830166, 2.718012, -1.139016, -0.025132, -3.154131, 0.092758, -0.456569, 1.349468, -1.318540, -0.668233, -1.697107, -0.129337, 1.808877, 0.264935, -0.299317, 0.358784, 0.895756, -0.184171, -1.016197, 0.299460, -1.459545, 0.758015, 0.917737, -0.068344, -1.146202, 0.452940, 0.258968, -0.170611, -0.371620, 2.296335, -1.518602, -0.402907, -0.513507, 0.564901, 0.285748, -0.487952, -1.533557, 0.574399, 0.091586, -0.605223, -0.084599, -0.428143, -0.040960, 1.864072, 0.446063, -0.737549, 1.606085, -2.093291, -0.089675, -1.086201, 0.097407, -1.465050, 0.520899, -0.523839, 1.166467, -0.513594, 0.841670, -0.103407, 2.099074, -0.136370, -2.525003, -0.680511, 0.982508, 0.065313, -0.704257, -0.453277, -0.220295, 0.699771, -0.612624, 3.104746, 0.774828, 0.648278, -0.122032, -0.198949, 0.485112, 1.402834, 0.734414, -1.362391, -1.357408, 0.565393, 0.794571, -2.215599, 1.622058, 0.867794, 1.421340, -0.787749, -0.225067, -1.187642, 0.198770, -0.213030, 0.671294, 0.828764, -0.264860, -0.159048, -0.315800, -1.749663, 1.298748, -0.208827, 0.857268, -2.557203, 0.711081, -1.030366, -0.288927, 0.234697, -0.490011, -1.219374, 0.645153, 0.123297, -0.470503, -0.090196, -0.519516, -0.702824, -0.969112, -1.255295, 1.961273, -0.205608, -0.351381, 0.327654, -0.500123, -0.187592, 0.271053, -0.704562, -0.777506, 0.393624, -1.125761, 0.909693, 0.027410, 1.657902, -1.291181, 0.016766, -0.543434, -0.673527, -2.105682, 0.961983, 1.575649, 1.238583, 0.591476, -0.588083, 0.890711, -1.805946, -0.763971, 0.034683, 2.113517, -0.956136, -0.022973, -0.866835, -0.423149, -0.133552, -0.713015, 0.156561, 0.387989, -0.411172, 1.223149, 0.147030, 0.772632, -0.138695, -0.927396, 0.284993, -2.273940, -2.079324, 0.093533, 0.379429, -0.721479, -0.537744, -0.264394, 1.551419, -0.379003, 1.664990, -1.386467, 2.354830, 0.328275, 0.017680, 0.950739, 0.726666, 1.630152, 2.836426, 0.889241, 0.558128, 0.668367, -0.768933, -0.249261, 0.302902, -0.611806, -0.525894, -0.322758, -0.195842, -0.048812, 1.109751, -1.841845, -2.471320, 0.867468, -0.354295, 0.512812, 0.376340, -0.517679, 1.916121, -0.016658, -0.960755, 0.537571, -1.360445, 0.071860, 0.501997, 0.127620, 2.512019, -0.842472, 1.937938, 0.706847, 0.902544, -1.228124, -0.459583, 0.571711, 0.847772, 0.890424, -1.309020, 1.432984, 1.010506, -1.026432, 0.181304, 0.127010, -0.645621, 2.465244, -0.295803, 0.243669, 0.904178, -1.036565, -0.831768, -2.449386, -1.416545, -0.519391, 0.712599, -1.023863, -1.137060, 0.988779, 0.142389, 0.423828, 0.350960, -1.376081, -0.018650, -0.609874, -1.386225, 0.618364, 0.251089, -0.874726, 0.072730, -0.595843, 0.608199, -1.055133, 0.505166, -0.343676, -1.103949, -0.237175, -0.151899, -1.784725, -0.024805, 0.520605, 1.315362, -0.430116, 0.441267, 0.870259, 1.373289, -0.124666, -0.792804, 0.642945, -0.168695, -0.606069, 0.328034, 0.199021, 0.217329, -0.066838, 1.896953, -0.915282, 0.059513, 0.653154, -0.206643, -0.637753, 0.871313, 0.466173, 0.848158, -0.353389, 0.665348, -1.010646, -1.597754, -0.015030, 0.434116, -1.383331, -1.528803, -0.383756, 0.704762, 0.291994, -1.003647, 1.648744, -1.265979, -2.962087, -1.307713, 0.912422, 0.995668, 0.244018, 1.691824, 1.013851, -0.347240, -0.786017, -0.373168, -0.145868, -1.198149, 1.856629, -0.402991},
    {0.307715, 1.911317, 0.993491, -0.523039, 0.626059, 0.692154, -0.860390, -1.415156, 2.477034, -0.343271, -0.079609, -1.200532, -0.938050, 0.016688, -0.994015, 0.232129, 0.989400, -0.558636, -0.593937, 1.540066, 2.440433, 0.360941, -0.607555, -0.553600, -0.249367, -0.049888, -0.257811, -0.379624, -0.581479, -1.905435, 0.982417, -0.138717, 0.454859, 1.042157, 0.277938, -0.455321, 1.462801, 0.264793, 0.190178, -0.724250, -1.749122, -1.557456, -1.385097, -0.447481, 0.606035, 1.446766, 0.472503, -1.024698, 1.145233, 0.642841, -1.084588, -0.725403, 0.824742, -2.150615, 0.329400, 3.405116, -0.665209, 0.071278, 0.813076, -1.205378, 0.887500, -0.259218, 0.139569, -0.039563, -1.515990, -0.912995, -0.424871, 1.016352, -0.116980, 0.699486, 0.938675, -1.228743, -0.132716, -0.158532, 0.308456, -0.106578, -0.748034, 0.565339, 0.114546, 0.867899, -0.489538, 0.009218, -0.315356, 0.545032, -0.801279, 0.527799, 0.257607, -0.568842, -0.102478, 0.006666, 1.649509, -0.698437, -0.242333, -0.388484, -0.387026, 1.658073, -0.134091, -0.470705, -0.884998, -0.797823, -0.523112, -0.657141, 0.646966, -0.847044, 2.023671, 0.772193, -0.347583, 0.151980, -1.259335, -0.945654, -1.149883, -0.406635, -1.244151, -0.233914, 0.409655, -0.321570, 0.068323, 0.233989, -1.765533, -2.056198, 0.578822, 0.576772, -0.551707, -0.668477, 1.525715, 0.040223, 1.178266, -0.195197, -1.514168, -1.480125, 0.771028, -2.410164, 0.550344, 0.006755, 0.471097, -0.625617, -0.691802, 0.220188, 0.396971, 0.271646, -2.023601, -0.317563, 0.512775, 0.122812, -1.752371, -1.556998, 0.710786, -1.154367, -0.252693, 0.879260, -0.060463, 0.805834, -0.372520, -1.809868, 0.353285, -0.169064, 1.445596, 0.426171, 0.917301, 1.087041, -0.170532, -0.167016, 2.975322, 2.490214, -0.880809, -0.521840, 0.143693, -0.250335, 1.234044, 0.490752, -0.282609, 0.985987, -0.346144, 0.064403, -0.084235, 0.710496, -0.134311, -0.344024, 1.523136, 0.226087, -0.213270, 0.586259, 0.317127, 1.750154, -1.464682, 0.915889, 1.094083, -0.723076, 0.070921, 0.085231, -1.234552, -0.434775, -1.703555, -1.699171, 0.761639, -0.871546, -1.201876, -0.391035, 0.410230, 0.776324, -0.906428, 0.615988, 0.151806, -0.667149, -0.301114, -0.890223, -2.122077, 1.366494, 0.651717, -0.228149, -0.610296, -0.283710, -0.787629, -1.464055, -0.561787, 0.182260, 0.156949, -0.547151, 0.037326, -0.981055, -0.043779, -1.034575, -1.477947, -1.397471, -0.009879, -1.195135, -0.192263, 0.904114, 0.937227, -1.146357, 1.214526, 0.359082, -0.861908, 1.379758, -0.304175, -0.023863, 2.004806, -0.818591, 0.141424, 1.391553, 0.794380, 2.091503, -0.707499, -0.186566, 0.630316, -0.571109, -1.677698, 0.526496, -0.332947, -0.014653, 1.082766, 0.640666, 1.871049, 1.059978, 0.306042, -0.323556, -1.336777, 0.545012, -0.862009, 0.319566, 0.759122, -1.946214, 0.740952, -0.606726, -0.352220, 0.229379, 0.140588, -1.316823, 0.301566, -0.209461, -0.637950, -0.747178, 0.502144, 0.067254, 0.359535, 1.176871, -1.122900, -0.305600, -0.279736, -1.365610, 0.637444, -0.660179, 0.670706, 0.505940, -2.309581, -0.311450, 0.523949, -0.050511, -2.102614, 0.515438, 0.669088, -0.379403, 0.153940, -0.975519, -0.066862, -1.695573, 0.173595, -1.809592, -1.281050, 0.392358, -1.215203, 1.105149, -0.749975, -0.022949, -1.254018, -0.395837, 0.481741, 0.039447, -0.730559, -0.042752, -0.914093, 0.173263, -0.051153, -0.320678, 0.554405, -0.581202, 0.846844, -0.183591, 0.265065, 0.106759, -0.579032, -0.388377, 1.103261, 0.207688, 1.067099, -1.217311, 0.421111, -0.435479, -0.221713, -1.813580, -0.189692, 0.985215, 0.051908, -1.224152, -0.769738, 1.762956, 0.697342, -1.249560, -0.899905, -0.808194, -0.145058, 1.315816, -0.505499, -0.734909, -0.423933, 0.537499, -0.267064, -0.588815, 0.116084, -0.099488, -0.171715, 0.641456, 0.083889, 0.697519, 0.709552, 0.143095, -0.316735, -1.961865, 1.376825, -1.414069, 0.023761, 0.307448, 1.200472, -1.050010, 0.538560, 1.028274, 1.812364, 0.806610, 0.351394, 1.710495, -0.986742, -0.211035, 2.102717, -1.268864, -0.178584, -0.029658, 0.421938, -0.309339, 1.999901, -0.651593, 0.773080, 0.930143, -1.344981, -0.999300, 0.053413, -1.071621, -1.952665, -1.397311, 0.000311, -0.674013, -0.309623, 0.141078, -0.133078, 1.275608, 0.133694, 0.962123, -1.671969, 1.250187, -0.409845, 1.428284, 0.146751, -0.628748, -0.047128, -2.141321, -0.348502, 0.509327, -0.698845, -0.194186, 1.316197, 0.206359, -1.115805, -1.118751, -0.761358, -0.357485, 0.124874, 1.076672, -0.582378, 1.689160, -1.217888, 0.843838, -1.519011, -0.268737, -0.263362, -0.322012, -1.866940, 0.308923, -1.384838, 0.594572, -0.491235, 1.278312, -0.612719, -0.024480, 0.078983, -0.473380, 1.167687, -0.605303, 0.223283, -0.295286, 0.019089, -0.178923, 0.553231, -0.389462, -1.156517, 0.327460, -0.184802, 0.008900, -1.030915, -0.107320, -2.091496, 0.451832, -1.822857, -0.497097, -0.113674, 0.641678, -0.329852, -0.061310, -0.798184, -1.720389, 0.161666, 1.096462, -2.155790, -0.000879, -0.663231, 0.170386, 0.009466, -1.265705, 0.218605, -0.010648, 0.094714, 0.875336, -1.040418, -0.649973, -0.392346, -0.092234, -0.928930, 0.406387, -0.018681, 0.193593, 0.900146, 0.138434, 0.100487, -0.013402, 0.114051, -1.100307, -0.114845, 0.523539, 0.797982, 0.738189, -0.209038, 0.695982, -1.489545, 1.939528, 0.335630, 0.256379, -1.272253, -0.319227, 0.203219, 0.300329, -0.189495, -0.076045, -0.218465, 0.187893, -0.863409, -0.293577, -1.587760, 0.659799, 0.544955, -0.793144, -0.645785, 0.231651, 0.195428, 0.049743, -1.315657, 1.513997, 0.514108, 0.326331, -1.212059, 0.177976, -0.443842, 1.019701, 0.511127, 0.107965, 0.989078, -1.092652, -1.683201, -1.020862, -1.545312, 0.380246, -0.215414, 0.240152, -2.033872, 0.492879, 0.335329, -0.623249, -0.382449, -1.886037, -1.330273, -0.928286, -0.210997, -0.007928, -0.345963, -0.421621, -0.981657, 0.450176, 1.144060, 0.999132, -2.104435, 1.927671, 0.479997, -0.318093, -0.040869, 0.616472, 0.991313, 0.126660, -0.260289, 0.325822, -0.268623, 0.563688, -0.865769, 1.773159, 1.395173, 0.390263, 1.466383, -0.031776, -0.416715, 0.131758, -0.292497, 0.284468, -1.418117, 2.556814, -1.099945, -1.363263, 0.286508, -1.224805, 0.874511, -0.778611, -0.638298, 0.642405, 0.159307, 0.307673, 0.543413, 0.531738, -0.388274, 0.908918, -1.098632, -0.738147, 0.401098, 0.679433, 0.820069, -0.761466, -0.319232, -1.258084, -2.818351, 1.439400, -1.204051, -0.179446, 0.374840, 0.003932, -0.678595, 0.675566, -1.611492, -1.230275, -0.622718, -1.923365, 0.017564, 0.791432, -0.546147, -1.412471, -0.930538, -0.207258, 0.735023, -0.109980, -0.297288, -0.171546, 0.310661, 0.431444, 2.210001, -0.880498, 0.180522, -1.435000, -1.751317, 0.258000, -1.326642, 1.480943, -1.250069, -0.499747, 0.206092, -1.502222, -0.504701, -0.743289, 1.922037, -0.790544, -0.604980, 0.566396, -0.822673, 1.632418, -1.998951, 1.112343, -1.024546, 1.346420, 1.152310, -0.417817, 1.262759, -1.116804, 1.427202, -1.251146, 0.019761, -0.823538, -2.013102, 2.077834, -1.410693, 1.653746, 0.741853, 0.903584, -0.237829, 0.184783, -0.520367, 0.375007, 0.025729, 0.281899, 0.508936, 0.444544, -0.112278, -1.506218, -1.405314, -0.882838, -0.972441, -0.509418, 0.222905, -0.154277, -0.264261, 0.085525, 0.174467, 0.962188, -0.319777, -0.198185, 1.031943, -1.339584, -0.297847, -0.557361, -0.210393, -0.671498, -0.607359, 0.292589, 0.536274, 0.106208, -1.527752, 1.450398, 0.459950, 0.182967, -0.985147, -0.293808, 0.724435, 1.196763, -0.942706, 0.344211, 0.554409, 0.139089, 0.776258, 1.114579, 0.626781, -0.162680, 0.655681, -1.405715, -1.587268, 1.967043, -1.685296, 1.394777, 0.659559, -0.368550, 0.198684, 1.259846, -1.426886, 1.281601, 1.672254, -1.045990, 0.553770, -0.338551, -0.331592, 0.486889, 0.922776, 0.064807, 1.975263, 1.209126, 1.775149, 0.963956, -0.292256, 1.057279, 0.554964, 1.249917, -0.312047, 0.419976, 0.823982, 0.851016, 0.799309, 0.025530, -1.358434, 3.054852, 2.094694, -0.476379, -0.322072, 1.153711, -1.292087, 0.333631, -0.705608, -0.211210, -1.011750, 0.755022, 0.550804, -0.035348, 0.146969, -0.597831, -0.187708, -1.622325, -1.266866, 0.613244, -0.221247, 1.619172, 0.502276, 2.218158, 0.727034, 0.169338, -0.101078, -1.079617, 0.204741, 0.565347, -2.113598, -0.554067, -0.519105, 0.771411, -0.219894, 0.607172, 1.506158, -0.738071, 2.000341, 0.553596, -2.898607, 0.906693, 1.680507, -0.350093, 0.542221, -0.731582, 1.683205, 1.101014},
    {-1.378184, -0.012822, 0.959338, -0.488031, -1.222873, -1.317103, -0.865182, -0.203439, -0.569617, 0.506941, 0.083991, 0.827871, 0.553957, 0.750381, 1.208347, 0.079585, 0.641977, 1.748725, 0.874077, 1.012455, -0.461370, -0.158962, 0.022079, 1.385344, 0.636346, 0.463844, 0.871416, -0.857713, -0.522775, 0.965408, -0.781829, 0.254083, 0.744992, 0.994101, 1.481675, -0.279750, 0.899964, 0.775112, 1.840860, -0.731615, 0.734482, 0.294239, -1.231604, 0.713636, 0.605594, -1.102496, -1.090892, -0.360781, 0.224540, 0.613004, -0.462633, 1.340089, 0.443717, 1.124968, 0.547821, 1.444407, 1.155559, 0.031127, 0.049536, -0.508660, 0.939036, -0.633160, -0.269326, 1.841702, -1.643229, 0.993909, -0.173743, 0.336055, -1.378848, -1.314818, 0.235968, 0.388320, 1.082419, 1.642107, -0.572009, 0.646751, -0.416775, 0.176203, -0.808773, 0.433205, -0.028452, 1.250532, -1.315239, 0.152494, -0.265986, -0.403307, -0.575322, -0.467075, -0.425581, 0.899939, 1.137644, 0.115471, -0.057594, 1.062584, 0.289382, 0.814139, 0.681570, -1.987439, -1.118882, 1.483762, -2.105416, -1.478909, -0.026385, -0.145067, 2.084910, -0.327872, 0.052206, -1.098204, 0.546848, 0.446701, 0.734723, 1.239900, -1.415512, -1.083097, -1.206276, -0.590232, 0.188906, -0.025212, -0.136638, 0.054018, -1.239256, 0.063948, 0.429829, -0.448384, -0.694775, -1.230160, -0.247350, 0.261545, -0.243034, -0.697248, -1.057308, 1.150280, -0.495779, -1.590309, 1.280998, -0.814912, -0.868634, -1.266512, 1.517203, -1.010964, 0.888400, 0.540121, 1.738146, 0.355547, -1.041052, -0.387674, -0.578501, 1.286635, -0.705573, -0.091135, 0.626778, -0.582657, 0.485754, -0.573977, -0.675668, -1.725927, -0.379245, -1.976077, 3.044742, 1.741048, 1.427980, 0.333223, -1.536467, -1.245949, -0.014582, -0.742748, 0.202880, -0.984777, 0.363862, -0.797152, 1.588796, -0.811447, -0.523304, -0.406420, -2.693425, -0.293988, -1.315548, 0.592547, 0.539480, 0.033794, 1.538657, -0.810122, -0.644038, 1.623295, 0.861273, 1.568803, -0.220391, 1.770099, -0.144901, -2.574881, 0.212988, -0.234776, -1.620200, 0.486404, -1.104518, 0.694885, -0.245954, -1.099121, -0.355857, 1.894838, -0.200064, -1.562014, 0.953472, 0.962203, 0.830246, -1.486743, -0.985369, -1.032967, 0.001756, 1.192661, 0.274039, -0.585419, -1.756473, 0.715742, 0.531158, 2.068964, 0.383046, 0.970625, 0.407990, -1.467438, -0.902734, 0.573529, -1.149385, -2.496328, -0.659368, 1.018339, 0.499663, -1.060437, -1.694099, -1.103357, -0.093298, 0.719018, -1.217550, 0.599468, 0.512157, 1.664491, 0.176495, -0.299301, 0.715492, -0.170808, -2.219447, -1.393608, -0.759014, 1.465752, -0.752681, 0.855424, 2.500313, 1.450494, -0.894503, -2.108938, 0.188413, -0.294385, 0.085992, -0.587455, -0.236716, -0.523485, 1.171750, 0.194156, -1.736008, 1.338826, -0.918922, 0.306855, 0.053704, -0.360973, 0.727000, 0.904519, -0.555486, -1.400404, 0.326925, 0.827234, 0.157651, 0.420896, -0.697203, 2.009843, -1.333122, -0.659391, -0.934807, -0.400929, -0.573419, 1.083376, -0.158673, 1.007732, 0.652165, -0.592116, -0.780105, 0.193931, -0.172534, 1.103066, 0.198078, -0.216502, -1.028501, -0.078145, -0.890019, 1.135806, -1.521601, 1.004624, 0.962700, 3.291436, 1.333685, 1.329349, 2.183169, 0.507208, -1.193870, 0.403946, 0.526694, -0.408059, -1.514098, 1.190432, 0.937803, 0.033724, -0.723014, -0.936622, 0.290169, 0.814719, -1.737463, 0.201312, -1.502275, 0.523951, 0.237914, -1.030849, -0.855678, -1.458122, 0.547697, -0.154945, 0.825677, 0.494434, 0.255479, 0.879741, 0.637248, 0.365814, -1.176218, 1.195322, 0.097498, 0.095011, -1.446236, -0.055034, -0.102082, -0.932385, 1.148316, 0.382485, -0.969035, -0.849775, 0.289499, 0.382306, 0.641540, 1.467007, 1.063048, -0.614669, -1.461398, -0.919158, -0.675360, -0.130282, -0.424382, 0.232893, -0.464015, -1.441481, -0.170631, -1.215002, -1.124670, -0.603174, 0.136264, 0.103199, 0.898477, -0.946110, -0.568418, 0.409732, 1.240151, -0.842031, -0.229845, -0.143220, -2.097334, -0.164262, -0.533793, -1.881216, -0.227352, 0.059753, -0.782308, -0.566073, 0.735516, 1.547148, 0.963934, 0.338821, -1.905884, -0.641166, 1.370633, 0.007939, -0.692073, 0.280744, -0.373561, -0.705973, -0.789086, 1.805958, -1.330333, 0.829325, 1.323163, -0.247637, 1.440988, -0.198006, -1.161981, 0.106448, -0.708148, -0.934410, -0.350559, -0.647763, -1.448051, 0.580768, -0.225567, 0.303037, -0.173062, 1.585785, 0.856411, -1.940153, -0.041999, 0.928087, -0.597842, -0.851241, 1.002143, -0.053660, 0.298048, 0.871042, 0.198907, -0.985632, 0.157031, 0.330578, -0.852822, 0.974744, -1.308629, -1.257233, -0.500713, 0.141476, 0.783766, -0.488534, 0.170686, -0.225936, 0.678956, -1.189727, -0.440259, -0.987538, -0.712265, -0.027192, -0.493351, -1.345794, 1.211881, 0.594873, -0.859102, 0.614059, -1.687289, -0.276054, 0.154565, 0.768975, 1.276548, 1.813684, -0.310927, 1.493081, -0.174989, 1.326430, 0.091005, 0.147156, 0.576333, -0.659023, -0.247461, 0.816105, 0.461931, -0.806340, 3.281996, -0.487956, 1.687621, 0.733026, -0.161555, 0.169612, -0.013316, 0.079593, 0.525861, 0.595213, -0.250588, 0.502368, -0.061874, -0.404546, 0.365576, -0.683365, -0.347352, 0.068636, 0.854531, -0.789280, 0.461735, 1.273343, 1.557043, -0.528422, 0.096340, 2.061418, -0.147181, 0.831174, 2.412316, 0.354047, 0.376782, -0.266896, -1.205104, 0.265643, -1.061621, 0.054743, -0.617969, 0.382675, 0.420766, 0.057785, -1.334160, -0.163740, -0.373043, -1.573011, 0.883131, -0.148856, 0.739508, 1.292042, -0.912949, -0.043086, 1.344268, 0.349708, -0.065125, 1.761051, 1.461303, -0.934150, -1.008373, 0.372044, -0.126297, -0.579959, -0.457841, 0.287761, -0.570389, -0.333568, 0.661426, 0.215764, -0.391892, 0.433414, 0.701488, 0.231657, 0.870678, -0.208116, -0.380553, 1.392437, 0.167861, -0.456771, -0.940310, 1.477515, 0.324993, -0.982331, 1.387342, -1.054515, 2.167038, -0.488002, 1.044687, 1.143674, 2.028068, 1.562477, 1.759077, 0.339946, -0.930638, -0.403972, 1.539756, 0.172630, -1.632133, -0.657323, -0.683413, 0.430370, 0.512220, -2.072563, -0.231373, -2.053603, -0.073284, 0.007649, -0.625127, -1.010786, -1.395508, -1.304017, 0.754428, 1.015114, -0.078294, 0.932163, -0.392482, 2.192886, 0.911692, 0.020834, -0.577644, 0.334685, 0.207763, 2.275246, 1.098242, -0.698960, 0.073074, -0.126158, -0.160745, 0.073655, 0.289319, -0.993065, -0.024304, 0.401528, -0.439038, -0.776150, -0.614732, -0.117470, 0.382798, 1.030606, 0.290944, 1.277597, 0.603939, -1.370452, -0.723399, 0.586978, -1.362483, 0.418139, -0.234574, -0.253931, -0.667670, 1.608530, 0.907962, 0.303416, 0.062974, 1.512006, 0.823426, 0.925766, -0.982282, 2.474817, 0.078392, 0.067649, -0.387973, 1.645392, -1.516580, 0.055941, 0.165746, -0.852301, -1.517022, -0.680101, -0.077964, -0.030698, 0.690906, -0.917850, -1.310179, -0.958899, -1.318079, 1.082630, -1.404173, 0.947492, 0.320516, 1.015792, 0.366313, 0.509852, -1.177907, 0.554490, -1.168993, 1.018290, 1.338869, -0.072993, -0.140530, -1.721815, 0.944823, 0.930670, -1.725683, -0.544296, 1.592882, -0.247706, -0.837183, -2.057733, 0.146482, 0.597429, -1.357161, -0.266350, -0.009750, 0.268491, -1.118958, -0.699644, -0.429705, -0.063045, -2.876569, 2.075215, 0.521295, 0.075661, -0.682851, -0.134596, 2.057181, -0.795384, -1.025153, -0.905570, 0.277951, 0.954528, 1.064258, -2.321913, 0.814427, 0.325570, -2.513980, -0.498181, 0.112654, 0.363044, -0.398958, 0.346383, -2.256501, -0.985433, -0.839038, -0.049349, 1.267151, 0.092332, -0.408933, -1.113104, -0.193352, -0.658247, -1.207344, 1.015714, -1.667413, 1.140081, -0.645134, 1.951560, 0.629487, 1.072251, -1.072141, -0.225293, 0.502185, -0.742576, -0.711118, -0.069540, 1.267757, 0.367253, 0.184025, 0.295204, 1.284958, -2.290665, 0.162645, -0.196336, -0.475332, -0.900062, 0.671421, 0.173671, 0.750581, -1.604098, 1.089403, -0.633288, -0.053294, 0.308024, -0.205932, 0.142331, -0.315678, -0.152009, -0.124367, 0.928149, -0.265330, 1.665983, 1.651850, -0.958747, 1.336022, -0.177961, 1.464072, -0.603961, 0.355424, 0.878139, -0.343626, 1.269390, -0.899471, -0.037485, -1.098376, -0.017567, 1.426390, -0.056796, -1.514105, -0.341224, 0.916031, -1.003365, -0.627605, 0.157146, 0.586176, 0.646621, -2.600475, -0.799356, -0.445313, -0.425550, -0.318542, -0.225348, -0.266895, -1.801052, 0.792833, -0.046172, -1.289437, -0.712898, 0.137016, -0.769238, -1.471526, -0.038019, 0.345543, 0.573239},
    {-0.409674, 1.001869, 1.365206, -1.514899, -0.932505, 0.415512, -1.981114, -0.621334, 1.834352, 0.231276, 0.814020, -0.995682, 1.937494, -1.013020, -0.384329, 0.108833, -0.917166, -0.769193, -1.431243, -0.278642, -2.183555, -0.459590, 1.055572, 0.905740, 0.302439, 0.664607, -0.685884, 1.789034, -0.423175, -0.297655, -0.151386, 0.159412, 0.287830, 1.869715, -0.084153, 0.494444, 0.001656, 1.588416, 1.127689, 0.140478, -1.308429, 0.312981, 0.295982, 1.938392, 0.746667, 0.014678, 1.236897, 1.390704, 0.484469, -0.624642, 0.242882, 0.268795, -0.241510, -0.846783, -0.514179, -0.757403, 0.159800, 0.657932, -1.540442, 1.380788, -1.708396, 1.509025, -0.257613, 0.707930, -0.684875, -0.404553, -2.188874, -0.919948, 0.394085, 1.432505, -0.806497, 1.181475, 0.324430, -1.940508, 1.105268, 0.006063, 0.737485, -0.198387, 0.490187, -2.446312, -2.278502, -2.535851, 0.085567, -1.478504, -0.127958, -0.400668, 0.051504, 1.526850, 1.153678, -1.664558, 1.183402, 0.058161, 0.078764, 0.723438, 0.838425, -0.839366, 0.713059, -1.765641, 1.316090, -1.819031, 0.122226, 0.897314, 0.047777, 0.168590, 0.500768, 1.149931, 1.695452, -1.099933, -1.408893, 0.035778, 0.991822, 0.081417, 0.635444, 1.021419, -0.132059, -0.066053, -0.086279, 0.003703, 0.337905, 0.522303, -0.670312, -0.706479, -0.746235, -0.475710, -0.333016, -0.332203, 0.449807, 0.986515, -0.681930, 2.054766, -1.220075, -0.399745, -1.319526, 0.548560, 0.497900, 0.014822, 0.269213, -2.420950, -0.700274, 0.560249, 1.019987, 0.448048, 1.496113, 0.234638, -1.030011, 0.927920, 0.037133, -0.690575, 0.337459, -0.627703, 0.363669, -0.390045, 0.752520, 3.631269, -0.987799, 1.435179, -0.272696, -0.217783, 0.991207, 1.756829, -0.759098, -0.166557, -0.225965, 1.857250, -0.483798, -1.133341, 0.423240, 0.584286, 0.147887, -0.531583, 0.822599, -1.277276, -1.964475, -0.860445, -2.128788, -2.539681, 0.485148, -0.080699, 0.168636, 0.251429, 0.007508, -0.683942, 0.625063, 0.373500, -0.293614, 0.765834, 0.828507, 0.057906, -1.178105, -0.061181, 0.346789, 0.280985, -0.213731, 0.837881, 0.796883, 0.954299, -0.099959, 0.123547, 1.059734, 0.761018, -1.781833, 1.185332, -1.322842, -0.381453, -0.109628, 1.065483, 1.217101, 0.348158, -1.017175, -2.427777, 0.598191, -0.047624, 0.208691, 0.810203, 0.435745, 1.670472, -0.581991, -0.219907, -0.311344, -0.421251, -0.714969, -0.481042, 0.035504, 0.059652, -0.078185, 0.117320, 0.348579, -0.173923, 1.363363, 1.189452, 1.399147, -0.389026, -1.220787, -0.133824, -0.308409, 0.756729, -0.936173, -0.344550, -0.512657, -0.877693, -0.138197, 1.203453, -0.217797, -2.140852, -0.353410, 1.009184, 0.122867, 1.168292, 1.852303, 0.573707, -0.000680, -0.456888, -0.587966, 1.588797, 0.402257, -0.556323, -1.881971, -0.531579, 1.522144, -1.162060, 0.073832, 1.179848, 1.297634, 0.925650, 0.020623, -1.113302, 0.141574, 0.889706, -1.335521, -1.447460, -0.356033, 0.576813, 0.507754, -0.603720, 0.380301, 1.150985, 0.293254, 0.755640, -1.234037, 1.343104, -1.448769, -1.158308, -0.607365, -0.669209, -0.582069, -0.249908, 1.334845, 0.336502, -0.210026, -1.168087, -0.029878, 1.607780, -0.824691, -0.645997, -1.178660, -1.704634, 0.331138, -0.704449, -1.412401, 1.067017, -0.487983, 0.119453, 0.359064, -1.749476, -1.448747, 1.749529, -0.630111, -1.400827, 0.759946, -0.011068, -0.153594, -3.053282, -0.148279, 1.469123, 1.737342, 0.958761, -0.680557, 0.923159, -0.289183, 1.297889, -1.023120, -1.607312, -2.856036, -1.077257, 0.211324, 0.646496, 0.217731, -2.365538, -1.138307, 1.407649, -0.267943, -0.828622, -0.102566, -1.073787, -0.454038, -1.276144, 1.153290, 0.542472, 0.114233, 0.416020, -0.697914, -0.498815, -0.062126, 0.234590, -1.165688, 1.079638, 0.463349, -0.786790, 0.282559, -0.287435, -1.159737, -0.754029, -0.077229, 0.035362, 1.310283, 1.965419, -0.641429, -2.026974, 0.987256, -2.954883, 0.173097, 0.233359, -1.354544, 0.574847, 1.946685, -0.842808, 0.164073, -0.130045, -1.313122, 0.166983, -1.583807, 1.071343, 0.030020, -0.373301, 1.437069, -1.261549, -0.574766, 0.736253, -1.221559, 1.255010, -1.090707, -0.293952, -0.955287, 0.861878, -0.553122, 0.250391, 2.469948, -0.155832, 0.048815, 1.396926, -1.032624, 1.413740, 0.136371, 0.296319, -1.669040, 0.830867, 0.299342, -0.278154, -0.608625, 1.015297, 0.069220, 0.131536, 0.467589, -1.004391, -0.501228, -1.012204, -0.218004, 0.047509, 1.128404, 0.381981, -0.314483, -0.486635, 0.478450, -0.410453, -0.682402, -0.339253, 1.198776, -0.340190, -2.293649, 1.537633, 0.874536, 0.648187, 0.544354, -1.206241, 1.544391, 0.870058, 2.240096, 0.673560, -0.759386, 0.510380, 0.755916, 0.086646, -0.777532, -0.650539, 2.116989, -0.675460, -0.019244, 0.668314, -0.776204, -0.600450, -2.525561, 0.448589, 0.707739, 0.152279, -1.325436, 1.668200, 1.253210, -0.913541, 0.991559, -1.432864, -0.315794, 0.005143, -0.569409, 0.385391, 1.132173, 0.004427, -0.108673, 1.077881, 1.039900, -0.012153, -0.322994, -0.647827, -1.042717, -0.715040, -0.421016, -1.027311, -0.648636, 0.242634, -1.523817, 0.547722, 0.586232, 0.535982, -0.539120, -0.286099, -1.111416, -0.977297, 0.547183, -0.960447, 0.007439, 0.918657, -0.681336, 1.068163, -0.352331, -0.762472, -0.183001, -0.365158, 1.080206, 0.180320, 0.577925, 1.062983, -0.468478, 0.512589, 0.547007, -0.808229, 0.536539, -0.343928, -1.977264, 0.334170, 0.311687, 1.438130, -0.543549, 1.416059, -0.032708, 1.169852, 0.719245, 0.436516, 0.676323, -0.525785, 1.885595, 0.392327, 0.134921, -0.421721, 0.246144, 1.850897, 0.078960, -1.880615, -0.249597, -0.858925, -1.868755, 0.701906, 0.313512, -0.646827, 0.708500, -1.324151, 1.104359, -0.301215, -0.387596, -1.684206, -1.607049, -0.475282, 0.916801, -1.270007, -0.932558, 0.024521, 0.787812, -0.846633, -1.137882, -0.105690, 0.982507, -2.462500, -1.185487, -0.550684, 1.921011, -1.162168, -0.651295, -0.488017, 0.780121, -0.906513, -0.241148, 0.602875, -0.641824, 0.303477, -1.199404, 0.964836, -1.434030, 0.110744, 1.249080, -0.802823, 0.755423, 0.967496, 2.674967, -0.538399, 0.781189, 2.232125, -0.087675, -0.438226, -1.824977, 0.504326, -0.860045, 0.670278, -1.568665, 1.369724, -0.225312, -0.690926, -0.346803, -0.883026, -1.267988, -0.069858, 0.175798, 1.092534, -0.748036, 0.234740, -0.423820, -0.775223, -1.289258, 0.022675, -0.787972, -0.394834, -0.707320, -0.607147, -0.228259, -0.815425, 0.054190, -0.410806, 0.936033, -0.626529, 0.913913, 1.345356, 1.950739, 0.197048, -0.110800, 0.771154, 0.666607, 1.195830, 2.400690, 0.216112, 0.115452, 1.395461, 0.350951, 0.921648, -0.785130, 0.892990, -0.445587, 0.043125, 0.356512, 0.977537, -0.152050, 2.005076, -0.398045, 0.360713, 0.277149, -0.600360, 0.335065, -0.224425, 0.208953, 0.421516, 0.260276, 0.409377, -0.704226, 0.400200, -0.673308, -1.133127, -0.963040, -1.137861, -1.089755, -0.353534, 0.021155, -0.056273, 0.905206, -0.415054, -1.377686, -0.244871, -0.521971, 0.766079, 0.818708, -0.074427, -0.608019, -0.999184, 0.356306, 0.600898, 0.970672, 0.099980, -0.736969, -1.318101, -1.035590, -0.091091, 0.097321, -1.816381, -2.549729, -0.416705, -0.801978, -1.104212, -1.274659, -0.253708, 0.905814, 0.188881, -0.253731, 0.762811, -0.172907, 1.462712, 0.360466, 0.065875, -0.673449, -0.275738, -1.787704, -0.403897, 0.889672, -0.451864, -1.154489, -0.105494, -0.232616, 0.350208, -1.194304, 1.061787, -0.708876, -1.422038, 0.349594, 0.225586, -0.134873, 0.026683, 2.182265, 1.106175, -0.685478, -1.640585, 1.021201, -0.067457, 1.231571, 0.781483, -0.712659, -0.354887, -0.008415, -0.266624, -0.629616, 1.474308, -0.029021, -1.584362, -1.092325, -1.189292, -1.355042, -0.239715, 0.120384, 1.247413, -1.313346, 0.738855, 0.502951, 0.613039, -1.110934, 1.537470, -1.030044, -0.338025, 0.235963, -1.718075, 1.487950, -1.106384, -0.516338, -0.049018, 2.078590, -1.534712, 0.332522, -0.072342, -0.186134, -1.489242, 0.490600, -0.010985, -1.190324, 0.255111, -0.992279, -0.484702, -1.051238, -0.958776, -0.105103, 0.413094, 0.985965, 1.396035, -1.787980, -0.055200, 1.203336, 0.616943, -0.729467, 0.719351, -0.145350, 0.718519, -0.090306, 1.246542, -1.182800, -0.024318, 0.389854, -1.313076, -0.874157, -1.924761, -0.523096, 0.206436, -0.287099, 0.040025, 0.458588, 1.106170, 0.129586, 1.068891, -2.465279, 0.313817, 0.133029, -1.020056, -1.230071, -1.602590, -0.280761, 1.723333, -1.614258, -1.564925, -2.155282, 2.026240, 0.012724, 0.253001, 0.894673, -1.259585},
};

const float biases[10] = {
1.498511, -1.075915, -1.166808, 0.679841, 0.086532, 0.488496, 0.763447, 2.271043, 1.155471, 0.110143};
